tree
version=v4
num_class=1
num_tree_per_iteration=1
label_index=0
max_feature_idx=151
objective=binary sigmoid:1
feature_names=numero_de_cliente foto_mes active_quarter cliente_vip internet cliente_edad cliente_antiguedad mrentabilidad mrentabilidad_annual mcomisiones mactivos_margen mpasivos_margen cproductos tcuentas ccuenta_corriente mcuenta_corriente_adicional mcuenta_corriente ccaja_ahorro mcaja_ahorro mcaja_ahorro_adicional mcaja_ahorro_dolares cdescubierto_preacordado mcuentas_saldo ctarjeta_debito ctarjeta_debito_transacciones mautoservicio ctarjeta_visa ctarjeta_visa_transacciones mtarjeta_visa_consumo ctarjeta_master ctarjeta_master_transacciones mtarjeta_master_consumo cprestamos_personales mprestamos_personales cprestamos_prendarios mprestamos_prendarios cprestamos_hipotecarios mprestamos_hipotecarios cplazo_fijo mplazo_fijo_dolares mplazo_fijo_pesos cinversion1 minversion1_pesos minversion1_dolares cinversion2 minversion2 cseguro_vida cseguro_auto cseguro_vivienda cseguro_accidentes_personales ccaja_seguridad cpayroll_trx mpayroll mpayroll2 cpayroll2_trx ccuenta_debitos_automaticos mcuenta_debitos_automaticos ctarjeta_visa_debitos_automaticos mttarjeta_visa_debitos_automaticos ctarjeta_master_debitos_automaticos mttarjeta_master_debitos_automaticos cpagodeservicios mpagodeservicios cpagomiscuentas mpagomiscuentas ccajeros_propios_descuentos mcajeros_propios_descuentos ctarjeta_visa_descuentos mtarjeta_visa_descuentos ctarjeta_master_descuentos mtarjeta_master_descuentos ccomisiones_mantenimiento mcomisiones_mantenimiento ccomisiones_otras mcomisiones_otras cforex cforex_buy mforex_buy cforex_sell mforex_sell ctransferencias_recibidas mtransferencias_recibidas ctransferencias_emitidas mtransferencias_emitidas cextraccion_autoservicio mextraccion_autoservicio ccheques_depositados mcheques_depositados ccheques_emitidos mcheques_emitidos ccheques_depositados_rechazados mcheques_depositados_rechazados ccheques_emitidos_rechazados mcheques_emitidos_rechazados tcallcenter ccallcenter_transacciones thomebanking chomebanking_transacciones ccajas_transacciones ccajas_consultas ccajas_depositos ccajas_extracciones ccajas_otras catm_trx matm catm_trx_other matm_other ctrx_quarter tmobile_app cmobile_app_trx Master_delinquency Master_status Master_mfinanciacion_limite Master_Fvencimiento Master_Finiciomora Master_msaldototal Master_msaldopesos Master_msaldodolares Master_mconsumospesos Master_mconsumosdolares Master_mlimitecompra Master_madelantopesos Master_madelantodolares Master_mpagado Master_mpagospesos Master_mpagosdolares Master_fechaalta Master_mconsumototal Master_cconsumos Master_cadelantosefectivo Master_mpagominimo Visa_delinquency Visa_status Visa_mfinanciacion_limite Visa_Fvencimiento Visa_Finiciomora Visa_msaldototal Visa_msaldopesos Visa_msaldodolares Visa_mconsumospesos Visa_mconsumosdolares Visa_mlimitecompra Visa_madelantopesos Visa_madelantodolares Visa_mpagado Visa_mpagospesos Visa_mpagosdolares Visa_fechaalta Visa_mconsumototal Visa_cconsumos Visa_cadelantosefectivo Visa_mpagominimo
feature_infos=[249221109:1587211176] [202102:202102] [0:1] [0:1] [0:3] [18:104] [1:374] [-238589.10999999999:420187.75] [-1031173.28:3786238.0899999999] [-77412.880000000005:292981.32000000001] [-265149.77000000002:352120.06] [-103791.28999999999:319734.82000000001] [3:17] [1:2] [1:3] [-43436.68:1627813.0600000001] [-2065768.4099999999:18211067.57] [2:10] [-5098.7200000000003:20232790.940000001] [-332.32999999999998:2823543.8300000001] [-21070.830000000002:89062812.75] [0:1] [-2435848.0499999998:97425113.370000005] [0:25] [0:219] [0:703309.56000000006] [0:3] [0:347] [0:2118349.5699999998] [0:2] [0:292] [0:3177760.1800000002] [0:353] [0:5303018.2400000002] [0:13] [0:13984782.369999999] [0:13] [0:20251010.620000001] [0:58] [0:81875400] [0:44959128.149999999] [0:16] [0:53204868.82] [0:41493956.299999997] [0:68] [0:315393551.63999999] [0:3] [0:4] [0:5] [0:4] [0:6] [0:152] [0:22975635.809999999] [0:413502.95000000001] [0:6] [0:213] [0:3899611.7200000002] [0:50] [0:1916174.6499999999] [0:28] [0:277834.39000000001] [0:36] [0:740534.09999999998] [0:267] [0:48951501.32] none none none none none none [0:39] [-13130.790000000001:10750.059999999999] [0:369] [-77412.880000000005:292981.32000000001] [0:14] [0:8] [0:37118.410000000003] [0:14] [0:2044.48] [0:621] [0:243245074.97999999] [0:189] [0:91726738.340000004] [0:101] [0:1340445.8200000001] [0:247] [0:15479374.800000001] [0:133] [0:26910200.539999999] [0:22] [0:4089887.9300000002] [0:54] [0:3128048.48] [0:1] [0:69] [0:1] [0:3452] [0:1] [0:22] [0:43] [0:10] [0:40] [0:101] [0:1305549] [0:49] [0:1340445.8200000001] [0:2082] [0:1] [0:1] [0:1] [0:9] [0:88947694.409999996] [-2914209:5084] [-1:146] [-770680.45999999996:3588212.9399999999] [-636427.31999999995:3521656.8799999999] [-626732.95999999996:1174806.05] [-27127.380000000001:3070348.4900000002] [0:13124.65] [985.32000000000005:10167376.32] [0:25941.639999999999] [0:287.31] [0:3213964.1600000001] [-2111398.5099999998:118958.3] [0:8232.4599999999991] [3:7571] [-27127.380000000001:3070348.4900000002] [0:199] [0:12] [0:1257256.5900000001] [0:1] [0:9] [0:171404488.81] [-2914209:4657] [5:147] [-740171.15000000002:4327678.1100000003] [-660149.92000000004:5076366.4199999999] [-815494.53000000003:1616174.97] [-25225.950000000001:1926793.21] [0:17793.98] [1011.71:10167376.32] [0:158355] [0:551.23000000000002] [0:1311241.8999999999] [-3171668.5299999998:23968] [0:13190.6] [3:12606] [-25225.950000000001:1926793.21] [0:218] [0:27] [0:4066755.8100000001]
tree_sizes=4332 4432 4449 4431 4452 4429 4441 4422 4475 4445 4441 4464 4467 4462 4460 4467 4463 4462 4450 4458 4486 4483 4464 4496 4463 4478 4464 4475 4484 4494 4506 4474 4484 4471 4482 4483 4487 4460 4469 4464 4502 4470 4463 4507 4496 4505 4482 4492 4482 4493 4481 4494 4469 4460 4486 4484 4475 4465 4485 4473 4511 4478 4488 4492 4478 4495 4467 4493 4471 4484 4519 4476 4508 4500 4495 4476 4486 4502 4479 4488 4467 4501 4529 4481 4531 4444 4496 4479 4489 4481 4484 4499 4493 4496 4445 4483 4502 4504 4494

Tree=0
num_leaves=40
num_cat=0
split_feature=107 18 33 115 107 71 18 33 136 51 27 74 8 18 8 18 10 147 33 51 151 8 74 130 18 30 136 10 18 6 136 18 73 57 107 120 27 8 151
split_gain=6028.49 1486.98 1227.41 1270.95 993.006 662.904 426.786 263.092 426.948 167.893 118.675 112.599 146.848 79.8689 74.2858 68.1724 63.4117 62.2209 58.8793 58.6588 78.9313 57.9534 52.8183 46.4675 67.8436 37.7387 40.4255 29.3288 26.0602 22.184 18.6702 17.9999 22.2466 20.3724 16.203 15.7099 15.362 14.7829 13.8436
threshold=12.500000000000002 233.30000000000004 15012.240000000002 122889.78000000001 38.500000000000007 1.0000000180025095e-35 1881.2100000000003 28623.910000000003 2714.6050000000005 1.0000000180025095e-35 1.5000000000000002 311.84500000000008 15464.490000000002 3103.7500000000005 13740.505000000003 29553.435000000001 -824.7349999999999 466.50000000000006 11269.185000000003 1.0000000180025095e-35 1.0000000180025095e-35 13740.505000000003 219.78500000000003 310.84500000000008 1881.2100000000003 1.0000000180025095e-35 11769.690000000002 1.0000000180025095e-35 4538.9450000000006 133.50000000000003 16830.810000000005 9804.9450000000015 6.5000000000000009 3.5000000000000004 60.500000000000007 211140.00000000003 2.5000000000000004 12067.160000000002 475.06500000000005
decision_type=2 2 2 8 2 2 2 2 10 2 2 2 2 2 2 2 2 8 2 2 8 2 2 10 2 2 10 2 2 2 10 2 2 2 2 8 2 2 8
left_child=1 2 3 5 6 17 7 8 11 10 15 -2 -13 -3 16 18 31 -1 22 20 21 -8 -6 24 30 26 -10 -24 -22 -26 -18 32 33 -12 -16 -28 38 -15 -30
right_child=4 13 -4 -5 9 -7 19 -9 25 -11 14 12 -14 37 34 -17 23 -19 -20 -21 28 -23 27 -25 29 -27 35 -29 36 -31 -32 -33 -34 -35 -36 -37 -38 -39 -40
leaf_value=-4.3223581913610376 -4.2588914342400042 -4.2621476652551591 -4.427562337965802 -3.4709002700523777 -4.2712090425645988 -3.7743283489509096 -4.2679108988791654 -4.5166170430229071 -4.29744591167659 -4.5359275388536746 -4.4831964641292741 -3.9003974888652899 -4.1889402819856896 -4.3752712219509551 -4.4998384050131834 -4.5058872421580327 -4.291450501327625 -4.1365538400219641 -4.4981984796044614 -4.5190273826080869 -4.4162439915282636 -4.4315369396063531 -4.4630942011453838 -4.519129642320066 -4.4930581981259134 -4.4692100194088011 -4.3628482709660519 -4.3451837045923334 -4.4945780442938039 -4.4258335404011113 -4.3992741705539773 -4.5222520791788545 -4.5109608986250578 -4.3900052375111747 -4.529548871595547 -4.4578368058624847 -4.5114008143295763 -4.455915582031988 -4.4072633315153675
leaf_weight=7.3409906923770896 9.8500779662281293 12.161943433806298 9.6638082610443217 13.564439324662088 8.5571869406849164 13.202853332273662 8.1079615941271204 12.654983202926813 12.972737942822279 903.82868506014347 15.974863563664259 7.0999535778537384 8.414751439355312 10.288343015126886 46.807004804722965 22.735143224708736 6.9903772389516217 8.4804935744032264 10.365034515969453 33.13304596580565 13.728745047934352 11.329226681962608 10.496515939943494 19.031779545359313 24.53204318229109 8.7324879299849254 7.7025610618293259 8.2065703170374018 8.4585694763809407 19.031786543317139 7.034201723523438 84.859603377990425 38.64426476508379 7.5382103212177745 278.67257427703589 7.5053377207368621 27.315041582100093 9.5871106367558223 7.4615121446549901
leaf_count=670 899 1110 882 1238 781 1205 740 1155 1184 82491 1458 648 768 939 4272 2075 638 774 946 3024 1253 1034 958 1737 2239 797 703 749 772 1737 642 7745 3527 688 25434 685 2493 875 681
internal_value=-4.49152 -4.10582 -3.95215 -3.84428 -4.51067 -4.01878 -4.40832 -4.32239 -4.28292 -4.52315 -4.50419 -4.13534 -4.0569 -4.35646 -4.51103 -4.44201 -4.4903 -4.22276 -4.40341 -4.4671 -4.44459 -4.36328 -4.36736 -4.45583 -4.43491 -4.38434 -4.35804 -4.41136 -4.47233 -4.46369 -4.34553 -4.50826 -4.48916 -4.45332 -4.52528 -4.40973 -4.49014 -4.41417 -4.45365
internal_weight=0 84.29 52.2526 42.5888 1697.77 29.0243 184.467 74.9329 62.2779 1513.31 609.477 25.3648 15.5147 32.0374 549.117 60.3605 223.637 15.8215 37.6253 109.534 76.4011 19.4372 27.2603 76.6202 57.5884 36.9131 28.1806 18.7031 56.9639 43.5638 14.0246 147.017 62.1573 23.5131 325.48 15.2079 43.2351 19.8755 15.9201
internal_count=162646 7693 4769 3887 154953 2649 16836 6839 5684 138117 55626 2315 1416 2924 50117 5509 20411 1444 3434 9997 6973 1774 2488 6993 5256 3369 2572 1707 5199 3976 1280 13418 5673 2146 29706 1388 3946 1814 1453
is_linear=0
shrinkage=1


Tree=1
num_leaves=40
num_cat=0
split_feature=18 136 52 51 11 22 12 136 136 126 5 136 136 151 147 11 11 120 147 81 10 10 6 130 139 6 56 94 24 30 18 81 139 12 116 22 5 22 10
split_gain=2783.84 1598.52 347.494 286.719 302.188 230.331 293.425 161.769 131.262 100.411 70.9291 70.9129 66.0927 45.3603 36.0458 35.0013 34.829 33.4073 33.2265 32.2179 29.923 31.56 26.4934 22.7429 21.6941 21.4227 19.2827 22.8842 17.6041 15.8329 15.6534 13.1732 14.4791 13.1325 13.7664 13.0295 12.5702 21.694 9.75994
threshold=889.78500000000008 2714.6050000000005 13939.760000000002 1.0000000180025095e-35 152.32500000000002 -1588.0599999999997 5.5000000000000009 1159.4250000000004 8686.1750000000011 405.50000000000006 34.500000000000007 13372.375000000002 7224.2400000000007 1.0000000180025095e-35 2294.5000000000005 191.29500000000004 474.76000000000005 126684.00000000001 2076.5000000000005 3636.3600000000006 -1.0000000180025095e-35 233.97500000000005 66.500000000000014 41.055000000000007 7500.2450000000008 153.50000000000003 559.37500000000011 1.0000000180025095e-35 1.0000000180025095e-35 1.0000000180025095e-35 1.0000000180025095e-35 19355.085000000003 6423.6400000000003 7.5000000000000009 4957.9850000000015 38552.760000000002 57.500000000000007 -3796.8299999999995 -1.0000000180025095e-35
decision_type=2 10 2 2 2 2 2 8 10 10 2 10 10 8 10 2 2 8 10 2 2 2 2 10 8 2 2 2 2 2 2 2 10 2 8 2 2 2 2
left_child=1 2 5 4 8 6 -1 9 13 -8 -7 15 16 17 30 18 24 -2 38 28 -15 -22 -11 31 -6 -20 27 35 33 -29 -12 32 -10 36 -35 -14 37 -13 -3
right_child=3 11 -4 -5 12 10 7 -9 23 22 14 19 26 20 -16 -17 -18 -19 25 -21 21 -23 -24 -25 -26 -27 -28 29 -30 -31 -32 -33 -34 34 -36 -37 -38 -39 -40
leaf_value=0.44153013547051578 0.088542167381036346 0.079528230921828563 -0.0095811200207170759 -0.043693564983733668 0.01856487699390303 0.30293244218264004 0.19905384350543287 0.13307494794321506 0.017872384029698148 0.41799822264627318 0.10743046997525747 0.10016672157586025 -0.011332396967492076 0.046493053593991474 0.24014561921233168 -0.010257526879388908 -0.0071148336675437339 0.20126581333240937 0.18273370004863168 -0.023872279383556343 0.17992452754584809 0.056171807363850315 0.31589389345893548 -0.031019482010419673 0.084751452247940312 0.082603797327857428 -0.03881466670833577 0.065898966617831331 -0.021225184314302519 -0.010415640266110962 0.17001416768391781 6.2630164002877212e-05 0.10750443250698817 0.046246169880214155 -0.040699340572263522 -0.035301980863150471 0.10862030614695588 0.00019140564485304031 0.0099550654156921881
leaf_weight=26.155910978093743 9.2843292988836783 9.5736996363848466 11.152522703632711 872.70160417631269 26.972400010563433 9.9992290819063765 11.931030255742369 17.33142193313688 7.8897896828129905 11.138128289021553 15.367133849300442 7.9179430389776853 100.19161497894675 25.906077172607183 10.883896956220267 8.8267303863540274 73.337454361841083 15.036254818551241 10.153257372789087 49.978318353183568 10.075271336361768 8.1293995399028045 11.055039742961524 20.161271348595619 18.045638398267329 8.6302404822781664 172.03309377655387 11.150648497045042 12.572155362926422 12.690373750403522 20.188731426373124 13.825276009738444 7.8493914660066366 8.994217371568082 7.1258049113675979 97.88349087536335 8.3892846694216114 11.801733159460129 8.1494800392538291
leaf_count=1189 731 753 982 83014 2406 660 683 1155 692 612 933 650 9265 2198 721 751 6651 1193 796 4607 821 698 653 1864 1506 699 16139 1031 1167 1188 1344 1254 694 802 653 9158 701 989 643
internal_value=0 0.130131 0.241022 -0.0263486 -0.00233918 0.261871 0.314101 0.249326 0.0650198 0.308369 0.190047 0.0242768 -0.0178747 0.107001 0.165741 0.0732396 0.0127442 0.158234 0.0934279 0.00348953 0.0787537 0.124662 0.367137 0.0072463 0.045096 0.136728 -0.0270737 -0.0179719 0.0275647 0.0252773 0.142966 0.0333414 0.0625734 0.0414333 0.00781218 -0.0231775 0.0607144 0.040334 0.0475371
internal_weight=0 297.316 145.203 1503.16 630.462 134.051 77.6115 51.4556 118.157 34.1242 56.439 152.113 512.305 68.4313 46.4398 45.3334 118.355 24.3206 36.5067 106.779 44.1107 18.2047 22.1932 49.7257 45.018 18.7835 393.949 221.916 56.8011 23.841 35.5559 29.5645 15.7392 44.229 16.12 198.075 28.109 19.7197 17.7232
internal_count=162646 22143 8932 140503 57489 7950 4292 3103 10145 1948 3658 13211 47344 5641 2998 3642 10563 1924 2891 9569 3717 1519 1265 4504 3912 1495 36781 20642 4962 2219 2277 2640 1386 3795 1455 18423 2340 1639 1396
is_linear=0
shrinkage=0.0467253


Tree=2
num_leaves=40
num_cat=0
split_feature=107 22 107 33 107 18 52 28 28 33 113 18 11 28 22 136 73 33 96 12 16 18 52 22 146 33 96 11 97 73 56 11 7 94 52 28 33 130 11
split_gain=2996.41 408.305 345.002 329.945 222.723 145.353 126.446 110.949 84.7438 103.438 87.5252 82.7096 76.2215 64.4836 64.338 44.9087 41.5159 37.5893 31.2219 40.0628 31.1404 39.2718 28.5846 28.4445 26.756 24.4511 22.5546 18.3112 16.9332 15.023 14.3297 13.4682 16.4348 14.4164 12.103 17.9939 11.7065 11.5035 16.2934
threshold=21.500000000000004 -1.0000000180025095e-35 46.500000000000007 28623.910000000003 1.0000000180025095e-35 7868.6050000000005 1.0000000180025095e-35 1280.3700000000001 2843.3950000000004 28623.910000000003 -1079.9999999999998 3103.7500000000005 419.78500000000003 2843.3950000000004 1.0000000180025095e-35 5759.7600000000011 6.5000000000000009 11269.185000000003 1.0000000180025095e-35 5.5000000000000009 -526.46499999999992 1881.2100000000003 1.0000000180025095e-35 1339.5600000000002 0.9900000000000001 4187.9000000000005 1.0000000180025095e-35 232.41500000000002 14.500000000000002 4.5000000000000009 1817.1950000000004 1178.2150000000004 1175.2450000000001 1.0000000180025095e-35 1.0000000180025095e-35 1.0000000180025095e-35 4187.9000000000005 310.84500000000008 113.47500000000001
decision_type=2 2 2 2 2 2 2 2 2 2 8 2 2 2 2 8 2 2 2 2 2 2 2 2 8 2 2 2 2 2 2 2 2 2 2 2 2 10 2
left_child=1 3 5 4 -1 8 12 18 9 10 -2 14 13 17 -3 26 20 23 19 -6 -15 -22 29 -4 -12 27 -16 -10 -23 -13 31 32 33 -14 35 -7 37 38 -18
right_child=2 11 6 -5 7 34 -8 -9 25 -11 24 22 30 16 15 -17 36 -19 -20 -21 21 28 -24 -25 -26 -27 -28 -29 -30 -31 -32 -33 -34 -35 -36 -37 -38 -39 -40
leaf_value=0.35518184723901508 0.063697259588124125 0.02921308373762823 0.15387501668704817 0.0084909161126347655 0.26766449428841188 0.052190235547821977 -0.044347506487971013 0.10025755790757317 0.060071077490788764 -0.022629503920031532 0.26263249001645411 0.078037405428461354 -0.0012143944838748646 -0.011647306931384702 0.14999167590161303 0.097036835880737068 0.04117142048363634 -0.016837816912108044 0.28643571567707343 0.1776524080067991 0.15293343352492522 -0.020954386517784258 -0.024727907340073529 0.054189513960741321 0.15993232342939959 -0.033310867925540756 0.23308274519290045 0.00020250738811747793 0.060747461074231991 0.0056959719760866032 -0.039635765468932889 -0.033153190503625384 -0.028533611845771759 0.069273131455953887 -0.034705002158027194 -0.012981827037307958 -0.045682090121187881 -0.034038998691564466 -0.01523615235630228
leaf_weight=28.125594495795667 15.128501667641101 12.161525414325295 10.212340558879079 15.042268128134308 17.427345236763358 11.737111515365539 801.11233721766621 18.007466215640306 45.680557538755238 9.460604668594895 10.696538536809387 29.816177116706967 51.781987535767257 23.610145657323301 16.078306389041245 20.979119686409831 15.84764747135341 9.2024059006944281 16.763527434319258 28.369005816988647 7.4675748609006432 8.8826641505584139 10.37794007360935 16.104481876827776 11.485056940466164 10.033519011922179 12.818667436949911 14.757058481685815 14.710132101550697 7.9354344345629206 147.87449906766415 99.620238045230508 52.48115460947156 7.217879435978829 33.630935655906796 43.635615421459079 30.081116612069309 31.888963468372822 37.958175649866462
leaf_count=859 1032 730 703 1064 485 935 79576 1071 3690 771 701 2379 4870 2092 929 1214 1382 771 716 1199 633 804 967 1240 719 874 765 1269 1341 670 14309 9545 4971 657 3314 4003 2829 3043 3524
internal_value=0 0.155342 -0.0239051 0.213593 0.241978 0.0324246 -0.0324097 0.202459 0.0666016 0.115364 0.150354 0.0899161 -0.0154813 0.00717686 0.125576 0.149073 -0.004758 0.0644487 0.231877 0.211906 0.0288002 0.0595458 0.0439512 0.0928728 0.209457 0.0342387 0.186851 0.045453 0.0299868 0.0628311 -0.0284816 -0.0206682 -0.00951153 0.00740885 -0.0125958 0.000832406 -0.0206045 -0.0118016 0.0013778
internal_weight=0 233.902 1572.3 123.735 108.693 206.245 1366.05 80.5673 117.242 46.7707 37.3101 110.167 564.941 205.966 62.0376 49.8761 170.446 35.5192 62.5599 45.7964 54.6705 31.0604 48.1296 26.3168 22.1816 70.4711 28.897 60.4376 23.5928 37.7516 358.976 211.101 111.481 58.9999 89.0037 55.3727 115.776 85.6948 53.8058
internal_count=162646 13048 149598 5394 4330 17308 132290 3471 9056 3223 2452 7654 52714 18362 3638 2908 15648 2714 2400 1684 4870 2778 4016 1943 1420 5833 1694 4959 2145 3049 34352 20043 10498 5527 8252 4938 10778 7949 4906
is_linear=0
shrinkage=0.0467253


Tree=3
num_leaves=40
num_cat=0
split_feature=107 18 33 28 18 107 10 8 4 33 10 8 28 147 16 28 71 8 10 126 5 18 8 95 116 16 18 151 32 74 18 29 144 127 107 28 5 27 125
split_gain=2436.74 333.998 269.787 247.772 177.104 112.366 99.4805 82.968 82.964 75.4534 68.03 54.5725 39.9008 36.229 30.7133 27.4032 29.3033 26.7417 35.4592 59.8697 25.9833 25.1677 23.937 21.4211 19.4197 19.3006 20.2423 21.7891 16.3264 16.2905 13.7806 12.6858 12.5197 12.8999 11.0854 10.4997 9.65928 8.30259 7.03992
threshold=30.500000000000004 1881.2100000000003 28623.910000000003 1280.3700000000001 6136.9950000000008 86.500000000000014 -1.0000000180025095e-35 2534.3550000000005 1.0000000180025095e-35 11269.185000000003 233.97500000000005 12067.160000000002 2843.3950000000004 1516.5000000000002 -114.25499999999998 2843.3950000000004 1.0000000180025095e-35 12067.160000000002 -169.98499999999999 762.50000000000011 61.500000000000007 1.0000000180025095e-35 19109.355000000007 1.5000000000000002 1.0000000180025095e-35 -672.99499999999989 1881.2100000000003 2093.8050000000007 1.0000000180025095e-35 363.84500000000008 33946.805000000008 1.0000000180025095e-35 1.0000000180025095e-35 77381.835000000006 67.500000000000014 5886.6950000000006 45.500000000000007 18.500000000000004 429.02000000000004
decision_type=2 2 2 2 2 2 2 2 2 2 2 2 2 8 2 2 2 2 2 8 2 2 2 2 8 2 2 10 2 2 2 2 8 8 2 2 2 2 8
left_child=1 2 3 6 5 9 -1 21 10 12 11 -9 13 -2 -3 16 -6 18 -16 -20 29 -8 -18 25 -15 38 27 -27 32 -5 -24 -19 35 -34 37 -7 -31 -17 -14
right_child=4 14 -4 20 15 28 7 8 -10 -11 -12 -13 23 24 17 34 22 31 19 -21 -22 -23 30 -25 -26 26 -28 -29 -30 36 -32 -33 33 -35 -36 -37 -38 -39 -40
leaf_value=0.28005103389248359 0.024506527725251935 0.10652194737595079 -0.0037224931497925845 0.086886195357125121 -0.028455496368050771 0.020931643344670511 0.078834762065544753 0.22652324759658082 0.12794881429991314 -0.029261956078127246 0.27945237740775458 0.1287257247120438 -0.021678522080406201 0.17198856567303589 -0.0022842870636306961 -0.029148204392349854 0.080435198970214422 0.052402343287714793 0.016668797097861211 0.14852486620613192 0.12874318226619716 0.15539673056992126 0.037626392842530755 0.10439077987345255 0.084928031085153052 0.11449758580699969 0.012776608026510396 0.028766099923054858 -0.044928708481525741 -0.0043926513841019742 -0.036568024636050238 -0.0087845515123532846 -0.01784483403171121 0.066777236501011902 -0.041054827957177749 -0.028306276693842398 0.05402497459519072 0.021711810640578491 0.016518682459910949
leaf_weight=20.629221218638122 12.987485220655797 13.054992941208182 25.657810819335282 15.639338755980132 124.57473148033023 10.952597369439898 22.048363167792559 30.402149577625096 31.959725451655686 38.942872483283281 25.760506552644074 21.105002151802182 18.262829042971134 9.7906824359670299 15.567082127556203 116.38663354609162 10.241541574709116 9.3680798551067692 14.597608099691572 15.502171158790587 11.656368110328911 16.306852235458791 9.3521001879125851 7.7009259797632685 13.049222925677894 12.99005021248013 24.904229647479951 12.899737861938773 61.562655754387379 11.889525963924827 13.151397353969513 35.175132619217038 7.9510570801794511 7.7827560007572174 845.02430400066078 69.172380113974214 12.867576888762413 7.456479361280798 24.893448636867106
leaf_count=758 951 985 1807 977 12444 923 867 946 864 3568 730 730 1647 633 1311 11406 860 734 1172 1159 687 695 780 658 834 1000 2242 1091 6146 720 1256 2960 765 690 86314 6726 763 723 2124
internal_value=0 0.110058 0.13967 0.156373 -0.0273441 0.00254551 0.183941 0.170507 0.191267 0.0281522 0.217457 0.186451 0.0444157 0.0868165 0.0395369 -0.0362044 -0.0181165 0.0298429 0.0549681 0.0845781 0.0672868 0.111385 0.0212168 0.0294713 0.122248 0.0233303 0.0428514 0.0717814 -0.0261518 0.0495535 -0.00573399 0.00408393 -0.0140929 0.0240136 -0.0391415 -0.0215758 0.0259701 -0.026086 0.000354429
internal_weight=0 349.188 245.922 220.265 1460.03 333.843 168.212 147.583 109.227 176.421 77.2677 51.5072 137.479 35.8274 103.265 1126.19 157.32 90.2101 45.6669 30.0998 52.0528 38.3552 32.745 101.651 22.8399 93.9503 50.794 25.8898 157.421 40.3964 22.5035 44.5432 95.8588 15.7338 968.867 80.125 24.7571 123.843 43.1563
internal_count=162646 18865 10544 8737 143781 29998 5590 4832 3270 14748 2406 1676 11180 2418 8321 113783 15340 7336 3642 2331 3147 1562 2896 8762 1467 8104 4333 2091 15250 2460 2036 3694 9104 1455 98443 7649 1483 12129 3771
is_linear=0
shrinkage=0.0467253


Tree=4
num_leaves=40
num_cat=0
split_feature=107 16 21 107 33 151 10 8 126 21 16 113 81 8 72 107 10 97 112 16 16 107 21 33 113 10 104 116 56 134 134 7 111 149 8 104 113 81 126
split_gain=2036.21 221.793 223.788 153.581 114.663 71.1626 59.2886 78.1023 61.3959 43.4153 38.4711 39.9235 30.5468 26.166 35.9154 31.7827 29.0151 24.5036 26.9209 22.3583 19.3239 19.0264 18.0828 23.1889 16.5474 21.6458 15.6509 21.3794 15.0303 14.809 14.7949 20.6886 13.8873 13.7626 29.5403 14.2107 13.0126 11.4844 8.97707
threshold=30.500000000000004 -175.06499999999997 1.0000000180025095e-35 67.500000000000014 11269.185000000003 134.89500000000001 -169.98499999999999 12067.160000000002 489.50000000000006 1.0000000180025095e-35 -12817.209999999997 -1416.4999999999998 45603.890000000007 29238.060000000005 1626.1200000000001 38.500000000000007 -444.98499999999996 1.5000000000000002 278704.80000000005 -63.509999999999991 -3653.6699999999996 116.50000000000001 1.0000000180025095e-35 1.0000000180025095e-35 -1079.9999999999998 -824.7349999999999 5806.3500000000013 1.0000000180025095e-35 70.495000000000019 -532.49999999999989 -1050.4999999999998 826.34000000000015 8.0000000000000018 10.500000000000002 9053.9600000000009 3108.4500000000003 -470.99999999999994 1.0000000180025095e-35 1394.5000000000002
decision_type=2 2 2 2 2 10 2 2 8 2 2 10 2 2 2 2 2 2 8 2 2 2 2 2 8 2 2 10 2 8 10 2 8 8 2 2 8 2 10
left_child=1 2 -1 9 5 10 29 8 37 -2 -4 20 13 14 15 19 -16 18 -10 -11 -12 22 23 -5 -17 -26 27 28 36 -3 31 -7 -9 -24 35 38 -27 -8 -35
right_child=3 6 4 21 -6 30 7 32 17 12 11 -13 -14 -15 16 24 -18 -19 -20 -21 -22 -23 33 -25 25 26 -28 -29 -30 -31 -32 -33 -34 34 -36 -37 -38 -39 -40
leaf_value=0.25462478674712341 0.085575260771118877 -0.010204282272646498 0.17887030313238239 0.08970145491018354 0.0054677351717046423 0.00025703525895893933 0.064099892368634698 0.007599577461750405 0.053477547111079826 0.07893046975353131 0.068059213069830898 0.15818213106997239 -0.02796909402565111 -0.025813960222870046 0.018364247683773042 -0.021938671950823777 0.13208396316749044 0.16660656975448004 0.13829929550689735 0.010686156412510779 0.12376035001821034 -0.03980617176238968 -0.034382674263062435 -0.033562746502401646 -0.029800058627097097 0.13458374180676877 -0.029472106286572562 -0.012313295545314833 0.012490478597692178 0.058276540858666272 0.11054617598251489 0.08176326615307071 0.063257900838984915 0.059200468920546576 -0.034185669166107401 -0.024568422566452836 0.053955670709864803 0.0028100767402339647 0.0090157697167081181
leaf_weight=25.82627743575722 13.008399349637328 31.388362853787839 35.795119429938495 6.4820712469518167 21.151746128685772 11.705390818417074 19.238979402929548 35.672130868770182 14.312840994447468 19.586027555167675 27.041243282146752 38.643326404504478 72.807727062143385 43.551427810452878 9.9679873036220688 60.871969507075846 9.6315324539318663 20.704996776767075 19.031777495518327 22.54665423091501 27.352157501503825 684.39929227344692 291.8818928739056 6.8565873028710485 18.745558532886207 7.9618613664060831 7.8897136934101573 10.682976767420767 7.8141345437616101 8.8348880205303413 11.513293198309837 16.221477707847953 13.487974579446016 14.047741007991137 71.761274632066488 14.448526718653737 9.6873599318787509 10.220691120252011 17.447632192634046
leaf_count=743 1120 2391 760 608 1405 694 1135 2732 760 1340 612 1192 7163 4008 902 5572 738 1123 757 1891 853 72129 30258 707 1747 659 760 926 679 613 639 848 878 1356 7238 1468 808 730 1704
internal_value=0 0.0939411 0.125596 -0.0268048 0.108005 0.120893 0.0545304 0.0695966 0.0971032 0.00199643 0.137706 0.121868 -0.0016067 0.00677719 0.0144336 0.00736226 0.074248 0.126681 0.10189 0.0424106 0.096069 -0.0349915 -0.0272001 0.0263389 -0.00457982 0.012251 0.0301516 0.0431658 0.0664417 0.00483728 0.0659754 0.0476004 0.0228705 -0.0289436 -0.015456 0.0137985 0.0903284 0.0428361 0.0313994
internal_weight=0 388.143 215.25 1422.08 189.424 168.272 172.893 132.669 83.5093 314.753 128.832 93.0367 301.745 228.937 185.386 165.786 19.5995 54.0496 33.3446 42.1327 54.3934 1107.33 422.926 13.3387 123.654 62.7816 44.036 36.1463 25.4634 40.2233 39.4402 27.9269 49.1601 409.587 117.705 45.9439 17.6492 29.4597 31.4954
internal_count=162646 18865 7746 143781 7003 5598 11119 8115 4505 28313 3417 2657 27193 20030 16022 14382 1640 2640 1517 3231 1465 115468 43339 1315 11151 5579 3832 3072 2146 3004 2181 1542 3610 42024 11766 4528 1467 1865 3060
is_linear=0
shrinkage=0.0467253


Tree=5
num_leaves=40
num_cat=0
split_feature=18 28 33 21 28 33 130 71 147 11 134 18 18 33 56 20 11 0 0 0 9 33 112 116 80 25 25 12 0 72 9 28 0 81 33 57 0 56 141
split_gain=1444.08 436.851 257.021 140.205 136.938 87.7885 78.0906 61.9583 54.3324 37.3765 35.7555 34.4885 31.8318 39.7825 35.8221 31.5649 30.8933 30.061 27.6762 25.4396 22.3154 21.4123 21.1495 19.9021 17.2621 13.4016 13.0874 17.4501 12.7974 12.6889 16.0939 12.503 11.643 10.5581 10.3021 9.94657 9.34267 9.20296 8.94122
threshold=1881.2100000000003 2843.3950000000004 28623.910000000003 1.0000000180025095e-35 2843.3950000000004 1.0000000180025095e-35 1.0000000180025095e-35 1.0000000180025095e-35 631.50000000000011 276.20500000000004 -1050.4999999999998 6136.9950000000008 38873.120000000003 23464.035000000003 874.53000000000009 19.490000000000006 76.785000000000011 806713397.00000012 839300271.00000012 937075121.50000012 415.76000000000005 15012.240000000002 139352.40000000002 426.5800000000001 1.0000000180025095e-35 11747.635000000002 5857.2000000000007 6.5000000000000009 323914757.50000006 1317.6950000000002 310.34500000000008 10156.245000000001 937075121.50000012 3636.3600000000006 15012.240000000002 2.5000000000000004 839300271.00000012 1175.4450000000002 351900.00000000006
decision_type=2 2 2 2 2 2 10 2 10 2 10 2 2 2 2 2 2 2 2 2 2 2 8 10 2 2 2 2 2 2 2 2 2 2 2 2 2 2 8
left_child=1 2 3 -1 7 9 8 16 18 10 23 28 13 14 17 19 21 33 -5 -10 -12 22 -2 29 -11 38 27 31 -6 30 32 -13 -3 -9 37 -22 -31 -30 -18
right_child=4 5 -4 6 11 -7 -8 12 15 24 20 26 -14 -15 -16 -17 25 -19 -20 -21 35 -23 -24 -25 -26 -27 -28 -29 34 36 -32 -33 -34 -35 -36 -37 -38 -39 -40
leaf_value=0.19797299867157672 0.0045087290614854048 0.082888370101261738 -0.012924860066822237 0.11643178013315232 0.038768352851339692 -0.044190110329580166 0.016762468605991971 0.028763289534919169 0.12768856233818235 0.024283666477757943 0.14151797637919097 0.03254065886928565 -0.0093272225406275024 -0.027827399338114074 0.0017287545042334845 0.085637413253338679 -0.016031148604867276 0.15219499171463083 0.06845109771919132 0.18140365037975242 0.032606522673077384 -0.030422105922336618 0.099697127444746819 -0.012567776400467827 -0.030804485660515874 -0.034185270687906652 -0.041575871877881164 -0.035057907118330803 0.00020660397022532798 0.039038446796886429 -0.024604615747505745 -0.018659186850936319 0.010903522851887348 0.097583297118972276 -0.041682996277770286 0.097281713506793863 0.10204042715171427 -0.037071708372481672 0.019171639998765814
leaf_weight=39.772044160403311 9.0019277762621694 10.028566246852284 37.93629633449018 45.116260142996907 10.320662611164151 46.432520274072886 20.866929914802313 9.8045583702623862 46.874226323328912 24.131538498215377 10.626697256229816 13.472141684032975 20.9474121266976 9.5656309975311142 10.462430814281104 21.245830323547125 56.845281535759568 14.273865195922552 62.755978026427329 32.663282262161374 12.828553996980192 8.2955767475068551 11.745111514814196 20.158171439543366 25.586480396799743 71.91821273509413 602.70508594624698 265.95968146808445 66.942253971472383 10.252888764254751 10.22999225836247 45.860991068184376 9.6028349772095662 9.6644146554172021 25.512842713855207 8.7208889424800855 10.30268391035497 18.441404396668077 21.79088622611016
leaf_count=894 709 647 2843 1255 965 4683 882 651 1446 2014 691 1305 1957 745 779 724 5315 951 1855 966 882 733 819 1700 2461 7642 66458 28094 6220 668 757 4774 657 668 2719 686 636 1860 1935
internal_value=0 0.0660121 0.10094 0.116981 -0.0269816 0.0120611 0.102946 0.00377927 0.111565 0.0291916 0.0452841 -0.0344376 0.0395355 0.0585709 0.0772667 0.136233 -0.0110965 0.100688 0.0885184 0.149747 0.0861056 0.0330264 0.0583959 0.0266731 -0.00406646 -0.019608 -0.0374993 -0.0299463 -0.0109981 0.0423627 0.0229142 -0.00703378 0.0476765 0.0629256 -0.0156297 0.0587801 0.0706157 -0.00784487 -0.0062761
internal_weight=0 506.133 307.231 269.295 1303.53 198.902 229.523 254.315 208.656 152.469 102.751 1049.22 74.7183 53.7709 44.2053 100.783 179.597 33.7428 107.872 79.5375 32.1761 29.0426 20.747 70.5751 49.718 150.554 927.998 325.293 121.217 50.417 29.8614 59.3331 19.6314 19.469 110.897 21.5494 20.5556 85.3837 78.6362
internal_count=162646 27347 10865 8022 135299 16482 7128 22904 6246 11799 7324 112395 5751 3794 3049 3136 17153 2270 3110 2412 2259 2261 1528 5065 4475 14892 100631 34173 11764 3365 2061 6079 1304 1319 10799 1568 1304 8080 7250
is_linear=0
shrinkage=0.0467253


Tree=6
num_leaves=40
num_cat=0
split_feature=11 51 33 51 130 73 139 71 8 7 6 132 8 11 33 7 16 8 96 133 134 7 95 7 0 12 113 7 113 127 8 74 113 139 113 72 113 96 30
split_gain=1217.49 425.446 216.835 193.707 136.478 111.35 61.4363 55.2754 37.6104 38.0435 36.8289 36.1854 31.2357 28.01 27.6045 23.9804 25.6598 37.2919 37.2407 24.5702 21.0585 19.6238 21.8621 16.1587 15.6548 14.6144 14.1624 17.258 13.8786 13.497 13.6182 15.2479 18.1392 16.8469 11.8648 10.8348 11.0012 9.15561 8.30864
threshold=113.47500000000001 1.0000000180025095e-35 28623.910000000003 1.0000000180025095e-35 41.055000000000007 4.5000000000000009 1.0000000180025095e-35 1.0000000180025095e-35 13740.505000000003 1335.8550000000002 19.500000000000004 1.0000000180025095e-35 15464.490000000002 1178.2150000000004 15012.240000000002 2769.7900000000004 -12817.209999999997 9053.9600000000009 1.0000000180025095e-35 316710.00000000006 -623.99999999999989 -779.94999999999993 1.5000000000000002 -450.22499999999997 1102301630.0000002 7.5000000000000009 -1475.4999999999998 -191.61499999999998 -501.49999999999994 8617.1700000000019 23562.845000000005 478.29000000000002 -1263.4999999999998 12980.530000000001 -685.49999999999989 1317.6950000000002 -805.49999999999989 1.0000000180025095e-35 1.0000000180025095e-35
decision_type=2 2 2 2 10 2 10 2 2 2 2 8 2 2 2 2 2 2 2 8 8 2 2 2 2 2 8 2 8 8 2 2 10 8 10 2 10 2 2
left_child=1 2 4 5 6 13 10 -3 9 26 24 12 21 14 20 16 -12 18 19 -18 29 -7 38 -6 -1 34 -8 -28 -10 -2 31 32 -31 -33 -25 -5 -37 -19 -23
right_child=3 7 -4 35 23 11 8 -9 28 -11 15 -13 -14 -15 -16 -17 17 37 -20 -21 -22 22 -24 25 -26 -27 27 -29 -30 30 -32 33 -34 -35 -36 36 -38 -39 -40
leaf_value=0.098731287032882531 -0.0065413250972371859 -0.03713321456625579 -0.015893058348272628 -0.044367275930514011 -0.034583315251768054 -0.026881588910626131 0.03021140826757121 0.10401773611520998 0.0037359665788438551 0.16248619138385442 0.16617540279410944 0.067604128203972241 -0.03026169649999744 -0.012548081780454667 -0.027280407047017712 0.077606303162481308 0.090398838164572407 0.075674305792961902 0.18301787088012422 0.14799620193555435 0.091533173675143992 0.011059163464894292 0.073107688200202428 0.022023116100824251 0.041262036930989253 -0.014614525278204907 0.03878657126438597 0.106576894201265 0.065572781748037406 0.0067300432771731401 -0.0044753227412865932 0.039341055001565886 0.080945204656607483 0.11762958767470526 0.085199179193060443 0.044160686521864848 -0.040758952745596003 0.11278901461479716 -0.014790884807571906
leaf_weight=21.205441072583199 12.557484306395056 96.961759839206934 48.956501544453204 656.5228240666911 10.993293932639061 59.799383089877665 13.793613441288469 6.4607564322650424 20.862859439104795 12.196446826681493 27.969330046325922 10.547070146538315 262.24662193376571 26.827319669537246 11.644684237428008 26.726000902242959 34.507914482615888 38.848137602210045 26.612669719383121 30.42818661686033 20.039992613717914 63.280614678747952 9.7043936094269139 15.376165458932517 20.212660508230329 11.362124311737714 11.912353562191123 26.302026241086427 12.777333839796482 19.820376936346292 9.7801925586536509 10.75287860073149 11.283345791511239 13.57979954686016 11.230566198937597 6.1325978087261319 7.2897761631757003 23.163338089361787 47.540384869091213
leaf_count=673 987 9693 3783 75109 959 6179 799 428 1224 547 440 767 27766 2398 964 583 986 1035 898 622 1132 5923 912 906 646 866 854 1313 739 1437 773 760 856 1013 620 643 801 832 4780
internal_value=0 0.0570592 0.0768817 -0.0263291 0.0883373 -0.00679181 0.0986272 -0.0283156 0.0672443 0.0882136 0.110926 -0.0179299 -0.0199683 0.0302397 0.0407266 0.118929 0.125013 0.117515 0.136466 0.117388 0.0488228 -0.00499859 0.00585878 0.0153022 0.0706854 0.0297458 0.0707959 0.085445 0.027223 0.0378176 0.0463589 0.0553272 0.0336527 0.083033 0.0486894 -0.0435176 -0.00195971 0.0895379 -3.00818e-05
internal_weight=0 548.859 445.437 1259.35 396.48 589.405 347.518 103.423 97.8446 64.2044 249.674 453.118 442.571 136.286 109.459 208.256 181.53 153.56 91.5488 64.9361 97.8141 180.325 120.525 48.9621 41.4181 37.9689 52.008 38.2144 33.6402 77.7741 65.2166 55.4364 31.1037 24.3327 26.6067 669.945 13.4224 62.0115 110.821
internal_count=162646 29446 19325 133200 15542 56647 12191 10121 5476 3513 6715 46327 45560 10320 7922 5396 4813 4373 2506 1608 6958 17794 11615 3351 1319 2392 2966 2167 1963 5826 4839 4066 2293 1773 1526 76553 1444 1867 10703
is_linear=0
shrinkage=0.0467253


Tree=7
num_leaves=40
num_cat=0
split_feature=18 28 52 28 33 33 21 8 8 81 5 52 8 31 126 56 136 56 58 145 97 8 96 8 133 2 97 5 72 126 28 72 33 111 33 134 28 18 18
split_gain=1125.83 273.703 199.835 158.25 152.613 74.9703 73.1019 49.611 36.9082 36.5895 35.0502 33.9264 31.5189 25.1114 23.315 21.7707 21.6646 20.5519 19.5978 19.0852 20.0877 18.6768 24.905 29.7907 20.6605 20.2399 15.5564 12.5387 12.4464 14.4671 11.9411 11.0705 10.743 15.8144 9.66434 9.41944 9.40322 9.36473 8.54777
threshold=1881.2100000000003 2843.3950000000004 1.0000000180025095e-35 2843.3950000000004 11269.185000000003 1.0000000180025095e-35 1.0000000180025095e-35 19109.355000000007 12067.160000000002 8710.1050000000014 67.500000000000014 13939.760000000002 13740.505000000003 844.73500000000001 2974.5000000000005 2843.1800000000007 13372.375000000002 69.980000000000018 2145.4300000000003 -22363.154999999995 50.500000000000007 26210.775000000005 1.0000000180025095e-35 1233.1400000000001 187210.80000000002 1.0000000180025095e-35 32.500000000000007 57.500000000000007 1317.6950000000002 1916.5000000000002 10156.245000000001 1009.8900000000002 23464.035000000003 8.0000000000000018 44464.070000000007 -866.49999999999989 24037.565000000006 14161.315000000001 25745.990000000005
decision_type=2 2 2 2 2 2 2 2 2 2 2 2 2 2 8 2 10 2 2 10 2 2 2 2 8 2 2 2 2 10 2 2 2 8 2 8 2 2 2
left_child=1 4 3 8 6 11 -1 13 14 10 21 12 16 17 37 26 18 19 31 -5 30 22 23 -8 -24 -25 32 34 -4 -30 -21 -3 33 -10 -6 -18 -14 -2 -19
right_child=2 5 28 7 27 -7 9 -9 15 -11 -12 -13 36 -15 -16 -17 35 38 -20 20 -22 -23 24 25 -26 -27 -28 -29 29 -31 -32 -33 -34 -35 -36 -37 -38 -39 -40
leaf_value=0.1422971991874929 0.064856392993812517 0.027612326362825235 -0.043959308507052673 -0.0018830187847897763 0.025439892320378386 -0.043964262815573314 0.033247180929916353 -0.035881041055080873 0.014394213267619615 0.02586446651457816 0.13690615922339328 -0.041091740219086473 0.018536238445601736 -0.023348183691228278 0.10709245127350232 -0.029539859068318092 0.016216588256631845 0.001258215315589355 0.11720497989915252 0.056607152692763951 0.10108180433463614 0.044467008178841826 0.14043696571446068 0.10986425706405994 0.082482187696232279 0.067739756491675254 0.07597399232209491 0.048725187614881552 0.056726300108567725 -0.041023247988923199 0.0029019145711630901 0.08470190002575903 -0.026567451135356929 0.083607313416660362 -0.0268339385050941 0.062123722844082553 -0.023818730896628386 0.011370134632650625 -0.03658493627293552
leaf_weight=49.00945496186614 17.849542567506436 18.598940568976108 663.76163575984538 38.128126854076982 10.77070851344615 43.564454853534698 30.190398042090237 203.05471355468035 32.503144100308418 24.572017267346382 26.047341899015009 15.282414710149167 26.893783118575811 90.19781447108835 21.73829860240221 15.795997799374161 41.124207264743745 31.802267334423959 13.878418499603866 16.177945426665246 10.079401336610315 28.759113939478993 27.125443886034191 44.201749620959163 26.598604751750827 57.035247810184956 13.640602066181598 9.2099471595138294 5.8440063111484033 7.610471704043448 20.483215951360762 12.333300985395907 8.9894740330055338 9.260989271104334 27.275967630557716 12.794020479544995 19.920391645282507 11.919276481494306 22.077531369403005
leaf_count=813 949 1009 78976 3718 509 4683 964 22654 2425 1039 606 1577 1927 9641 1250 1418 3150 3110 721 1280 930 703 754 672 693 1396 1146 596 591 851 1825 601 703 572 2120 948 1866 861 2399
internal_value=0 0.0536094 -0.0259503 -0.00539821 0.0780829 0.0104081 0.0898807 -0.0190675 0.0394406 0.0801695 0.0857304 0.0251365 0.0320906 -0.00415543 0.0703046 0.0196163 0.0470636 0.00832142 0.0710731 0.02265 0.0426626 0.0794989 0.0849403 0.0739838 0.111744 0.086132 0.0316744 -0.000193826 -0.0430575 0.00143466 0.0266011 0.0503751 0.0197684 0.0297419 -0.0120356 0.0271097 0.00051333 0.0434408 -0.0142482
internal_weight=0 565.186 1240.91 563.698 360.796 204.39 313.539 432.001 131.697 264.53 239.958 160.825 145.543 228.946 51.5071 80.1902 98.7289 138.748 44.8107 84.8687 46.7406 213.911 185.151 131.427 53.724 101.237 64.3942 47.2566 677.216 13.4545 36.6612 30.9322 50.7536 41.7641 38.0467 53.9182 46.8142 29.7688 53.8798
internal_count=162646 27347 135299 54881 10865 16482 7640 45557 9324 6827 5788 11799 10222 22903 3060 6264 6429 13262 2331 7753 4035 5182 4479 3032 1447 2068 4846 3225 80418 1442 3105 1610 3700 2997 2629 4098 3793 1810 5509
is_linear=0
shrinkage=0.0467253


Tree=8
num_leaves=40
num_cat=0
split_feature=18 28 51 32 28 32 21 51 121 73 10 6 71 18 59 141 74 7 113 141 0 72 146 18 141 0 145 113 140 80 95 141 6 23 28 32 28 113 113
split_gain=1005.75 249.834 157.943 130.436 119.329 73.5918 55.7128 37.0764 34.4485 31.2192 30.4532 29.2022 31.022 28.4022 27.0975 24.4954 18.2009 16.491 15.5465 14.6464 16.0336 13.0907 12.9851 12.6515 11.9802 17.4246 15.9461 11.8602 10.7827 9.79188 9.60205 9.49473 8.61349 8.16856 7.99867 7.35635 6.96037 7.38217 6.91483
threshold=3103.7500000000005 2843.3950000000004 1.0000000180025095e-35 1.5000000000000002 2843.3950000000004 1.0000000180025095e-35 1.0000000180025095e-35 1.0000000180025095e-35 1.0000000180025095e-35 6.5000000000000009 -558.08999999999992 195.50000000000003 1.0000000180025095e-35 38873.120000000003 1.0000000180025095e-35 105570.00000000001 86.930000000000021 2769.7900000000004 -1416.4999999999998 126684.00000000001 730051156.50000012 1317.6950000000002 1.0000000180025095e-35 16626.740000000002 87975.000000000015 869670166.50000012 -14823.004999999999 -805.49999999999989 5.6550000000000011 1.5000000000000002 1.5000000000000002 563819.6050000001 169.50000000000003 1.5000000000000002 1.0000000180025095e-35 1.0000000180025095e-35 37855.010000000002 -1597.4999999999998 -623.99999999999989
decision_type=2 2 2 2 2 2 2 2 8 2 2 2 2 2 2 8 2 2 10 10 2 2 8 2 10 2 8 10 8 2 2 10 2 2 2 2 2 10 8
left_child=1 3 4 6 13 7 -1 10 -8 16 29 12 22 19 17 -14 -6 24 -17 34 28 -4 -10 32 -12 26 -26 -23 -21 31 -11 36 -18 -32 35 -2 37 -3 -34
right_child=2 5 21 -5 9 -7 8 -9 11 30 14 -13 15 -15 -16 18 23 -19 -20 20 -22 27 -24 -25 25 -27 -28 -29 -30 -31 33 -33 38 -35 -36 -37 -38 -39 -40
leaf_value=0.11783158392162046 0.054858266544321403 -0.037850988214485036 -0.043830662871463949 -0.008614546918574233 0.049241093717954008 -0.041724530423173686 0.02240817497057063 -0.032191305241656275 0.080036821678422937 -0.03200250730806075 0.029450616482796992 0.11801470978059789 0.11461896099278467 -0.0027144794320633618 -0.022179413771227233 0.057009028622263251 -0.0029293008893646754 0.012144978492022866 0.092307237432127334 0.075046369031594798 0.098957623425650634 0.049925039913190861 0.038094803014178162 -0.0218285516523067 0.053155112636500301 0.043488873228820502 0.12274906968174636 -0.040019821198002389 0.0077953392239342055 -0.021570765156965675 0.02324502216605543 0.061893944490507544 0.0717394216913365 -0.03588481020655563 -0.0068664492079886464 0.0083202979559196481 0.036499566851212258 0.011107740604204228 0.0083327598098260104
leaf_weight=59.925266593694687 23.242117767222226 9.6250382680445892 627.21239666081965 43.888431708328426 14.036089202389119 51.568724128417671 31.655515224672854 24.881441513076425 20.720714353956282 246.78517277166247 15.741033024154602 29.250083130784333 37.180982328020036 34.607549875043333 11.138525389134882 69.000311493873596 32.664333118125796 15.691337600350378 45.012535768561065 9.9141767770051974 19.1299321167171 6.2527709202840924 72.516598084010184 58.981189042329788 11.137297956272958 21.515966871753335 20.271618961356584 6.5572368744760734 10.958734355866907 19.986259772442281 13.270031105726959 8.5478235380724055 7.4597165444865823 8.2856485554948431 10.359265832230447 10.890425969846545 13.37681253813207 22.308870515786115 7.5611794646829349
leaf_count=1203 1279 639 78079 2891 1236 5803 1216 2614 768 28029 900 713 827 3157 933 1264 2960 1276 943 679 1160 620 2436 6303 742 1216 1029 763 641 1820 1427 669 676 914 732 765 1116 1533 675
internal_value=0 0.0451272 -0.0274339 0.0674947 -0.0079847 0.00789356 0.0766397 0.0210679 0.0685554 -0.020513 0.0288933 0.073893 0.0686132 0.0329386 0.0463176 0.081685 -0.000777481 0.055362 0.0709448 0.0475415 0.0680577 -0.0428757 0.0474158 -0.00735936 0.0652378 0.0758817 0.0980717 0.00388371 0.0397381 0.00636025 -0.0293903 0.0167251 0.0105374 0.000516488 0.0290953 0.0400097 0.00820406 -0.00364866 0.0398219
internal_weight=0 654.941 1148.17 409.15 508.146 245.791 365.262 194.222 305.337 389.043 169.341 273.681 244.431 119.102 95.4958 151.194 120.703 84.3573 114.013 84.4947 40.0028 640.022 93.2373 106.666 68.6659 52.9249 31.4089 12.81 20.8729 73.8448 268.341 53.8585 47.6852 21.5557 44.4918 34.1325 45.3107 31.9339 15.0209
internal_count=162646 32551 130095 12261 50633 20290 9370 14487 8167 42220 11873 6951 6238 8413 6096 3034 11850 5163 2207 5256 2480 79462 3204 10614 3887 2987 1771 1383 1320 5777 30370 3957 4311 2341 2776 2044 3288 2172 1351
is_linear=0
shrinkage=0.0467253


Tree=9
num_leaves=40
num_cat=0
split_feature=107 51 95 11 8 22 28 51 20 73 12 28 8 71 11 116 22 120 28 57 137 141 151 95 72 6 57 107 151 22 120 22 141 5 72 8 7 11 57
split_gain=1096.88 157.636 111.399 114.666 73.4425 54.2918 50.0678 29.6872 27.606 25.2656 22.9327 21.4368 23.0311 46.3581 20.774 21.0496 19.0006 17.8925 17.3047 16.2174 17.6956 13.7427 12.5987 12.221 12.134 11.4378 11.3832 11.077 11.0599 10.1677 12.6382 9.77355 9.49446 8.4032 7.77068 9.11574 7.75105 7.63132 8.49807
threshold=38.500000000000007 1.0000000180025095e-35 1.0000000180025095e-35 43.135000000000012 19109.355000000007 -17750.084999999995 4387.3450000000003 1.0000000180025095e-35 291.33500000000009 6.5000000000000009 7.5000000000000009 2843.3950000000004 13740.505000000003 1.0000000180025095e-35 232.41500000000002 426.5800000000001 9020.715000000002 182988.00000000003 2843.3950000000004 2.5000000000000004 1.0000000180025095e-35 154836.00000000003 14023.215000000002 3.5000000000000004 1364.9550000000002 59.500000000000007 4.5000000000000009 60.500000000000007 1859.2050000000002 68981.045000000013 154836.00000000003 -3796.8299999999995 240699.60000000003 42.500000000000007 1317.6950000000002 26210.775000000005 1918.2050000000002 934.31500000000017 6.5000000000000009
decision_type=2 2 2 2 2 2 2 2 2 2 2 2 2 2 2 8 2 8 2 2 10 10 10 2 2 2 2 2 10 2 8 2 8 2 2 2 2 2 2
left_child=2 4 3 5 6 -1 14 10 11 16 19 12 13 32 15 -2 26 -16 29 20 21 33 23 37 25 -22 28 -20 -8 30 -6 -15 -7 -5 -3 -36 -14 38 -11
right_child=1 34 -4 7 18 8 9 -9 -10 22 -12 -13 36 31 17 -17 -18 -19 27 -21 24 -23 -24 -25 -26 -27 -28 -29 -30 -31 -32 -33 -34 -35 35 -37 -38 -39 -40
leaf_value=0.1072342857661065 0.10240367104083645 -0.043805571953690087 0.14164090258438905 0.0082132463817579902 -0.027100278552269361 0.033860632341108636 0.057736131330718587 -0.022514930786934929 0.012592654077962289 -0.009895735710184388 -0.0030615172869218857 0.021863730069939587 0.053639841675473414 0.082729268872720238 -0.037400644609426867 0.028710476346822569 -0.0059184872916385675 0.051641411656574952 -0.0068041187770810753 0.082969146022161627 0.052809152338582986 0.081023049608301492 -0.042195892549005742 0.055429698918504092 -0.029021683994142317 0.0063999429581906549 0.076865910625841069 -0.037457012332408404 0.0055069765148745911 -0.028550080815468899 0.040594935470956404 0.11463709572936456 0.06384774422425836 0.048245539006132543 0.031715261323445404 -0.047149031745842999 0.022561195601213762 -0.033042121822393682 0.034138808278476679
leaf_weight=49.327107110992074 18.97288943361491 625.25802785111591 27.504939566366374 17.928652809932828 9.1804084405303019 42.976747585460544 13.773992807604371 32.083152421750128 30.943626953288913 77.617771260906011 45.089902576990426 30.143439400941133 45.557451816275716 44.19540942274034 9.3800235670059937 15.27583338646218 42.979621725156903 10.37849793024361 30.065559663809836 13.953487067483364 17.673565280623734 18.436109969392419 28.276491550263017 6.370831824373453 12.467392411082981 33.70582406129688 11.657391105778514 178.83419250510633 24.769831744022667 17.480004820041358 17.496194732375443 39.862373406998813 49.721254946663976 31.670405485667288 6.5126864779740554 6.2907336335629225 28.468589728698134 26.516815241426229 10.913762918207793
leaf_count=858 949 81089 1230 678 685 1323 1036 3262 879 7896 3085 1520 1176 612 760 850 4232 795 3060 897 1135 842 3197 607 809 2125 901 21486 2123 1651 1197 716 1276 1253 678 724 853 3071 1130
internal_value=0 -0.0272662 0.0497447 0.0454182 -0.00893277 0.061684 0.00683185 0.0190732 0.0544795 -0.00221655 0.0260617 0.0590933 0.0635682 0.0727318 0.0475235 0.0695346 0.0168849 0.0093702 -0.0274277 0.0350661 0.0299978 0.0465782 -0.0141066 -0.00756504 0.0123298 0.0223639 0.0364079 -0.0330453 0.0241715 -0.000851295 0.0172985 0.0978608 0.0499451 0.033775 -0.0430677 -0.00703331 0.0416878 -0.0110534 -0.00446736
internal_weight=0 1188 611.709 584.204 549.94 361.196 296.884 223.008 311.869 242.877 190.925 280.925 250.782 176.756 54.0072 34.2487 93.1808 19.7585 253.056 145.835 131.882 68.0352 149.696 121.419 63.8468 51.3794 50.2012 208.9 38.5438 44.1566 26.6766 84.0578 92.698 49.5991 638.061 12.8034 74.026 115.048 88.5315
internal_count=162646 138117 24529 23299 55626 9213 27547 14086 8355 24193 10824 7476 5956 3927 3354 1799 8292 1555 28079 7739 6842 2773 15901 12704 4069 3260 4060 24546 3159 3533 1882 1328 2599 1931 82491 1402 2029 12097 9026
is_linear=0
shrinkage=0.0467253


Tree=10
num_leaves=40
num_cat=0
split_feature=107 51 11 11 130 95 107 22 16 51 74 126 97 38 28 139 107 10 5 10 118 20 10 0 126 16 18 5 28 5 5 63 64 81 11 16 22 6 7
split_gain=978.318 154.975 87.7734 68.7037 45.6251 40.6473 39.3789 35.4874 32.5693 25.8514 24.7838 22.5199 19.581 15.6979 20.8184 17.4183 15.4812 14.7014 23.98 17.1384 14.6557 14.4024 13.7852 13.391 11.488 11.0048 10.0556 12.0136 10.3194 9.74944 9.04859 14.6617 10.147 9.97288 8.65537 15.6958 8.57121 8.42376 8.14936
threshold=38.500000000000007 1.0000000180025095e-35 76.785000000000011 419.78500000000003 41.055000000000007 1.5000000000000002 1.0000000180025095e-35 -3796.8299999999995 -2003.3199999999999 1.0000000180025095e-35 86.930000000000021 243.50000000000003 28.500000000000004 1.0000000180025095e-35 14760.900000000003 4531.1000000000013 123.50000000000001 233.97500000000005 34.500000000000007 -169.98499999999999 613.65500000000009 3.1550000000000007 -982.81999999999982 668789541.50000012 2084.5000000000005 -12817.209999999997 25745.990000000005 63.500000000000007 13166.540000000003 40.500000000000007 40.500000000000007 1.0000000180025095e-35 469.20500000000004 34349.685000000005 191.29500000000004 -672.99499999999989 13157.210000000001 102.50000000000001 2431.9150000000004
decision_type=2 2 2 2 10 2 2 2 2 2 2 8 2 2 2 8 2 2 2 2 8 2 2 2 8 2 2 2 2 2 2 2 2 2 2 2 2 2 2
left_child=2 3 6 4 5 10 7 -1 -4 13 -2 -8 17 14 15 37 26 18 -13 -20 -12 24 -22 -19 -21 -25 27 38 -28 -17 31 -24 33 34 35 -32 -31 -10 -5
right_child=1 -3 8 16 -6 -7 11 -9 9 -11 20 12 -14 -15 -16 29 -18 23 19 21 22 -23 30 25 -26 -27 28 -29 -30 36 32 -33 -34 -35 -36 -37 -38 -39 -40
leaf_value=0.10240631376246508 0.06540224897515394 -0.042877933557584243 0.060955153450727224 0.0021366512240364949 -0.018666881832485178 0.10842276090342605 0.0054796441368453602 0.047896510684118501 0.033582662981977235 -0.03060500487679885 0.072197928087359461 0.090513305844230743 0.090197532298963115 -0.029852721072331841 -0.010857945821583614 0.090141238664908377 -0.034028400491733703 0.0599081547460623 0.015217886631149485 0.081805829298021646 -0.023143200559564717 0.027001676457004711 0.0081120532276592622 0.042218460536085703 0.050990511933686443 -0.00070389145662161931 -0.0036979692882259142 0.041467434596661974 -0.034918506466566308 0.064927106367787688 0.007023464943846959 0.073965795033396189 -0.02138512283207189 -0.023154756074010345 -0.0047609129264403931 0.087919895681972893 0.021356629822671589 -0.010754717743801072 -0.043150335480341778
leaf_weight=66.391252439469099 20.649628216866404 611.5851164883934 33.094184990972281 35.018694653175771 80.102029812056571 11.691056399606166 24.376488454639912 42.940091605298221 18.398654114454985 28.16103457659483 7.8171253907494265 34.563198551535606 26.929434951394796 13.039686410687862 28.100006436929107 11.837300038896499 149.85199706023559 24.197685173712671 29.153026829008013 41.699830223806202 27.099038451444358 32.462222346104681 17.636796585284177 23.080249760299921 72.048683010973036 29.98280269280076 38.689005090855062 13.168079308699815 57.417639452498406 18.578270175494254 10.266242394223811 12.69366589700803 21.533421146217734 9.6447189436294121 9.8829804682172817 10.687692533247175 20.999400269240141 19.034424264915287 11.532089008484034
leaf_count=804 1224 82491 1339 3474 7976 893 996 940 1175 3031 682 881 1043 833 2107 601 18189 682 1229 1130 2494 904 1291 482 1670 1160 4190 1311 6887 878 704 948 1754 820 869 682 1334 1310 1238
internal_value=0 -0.026729 0.0453014 -0.00861971 0.010108 0.0245497 0.0566176 0.0809975 0.0188029 0.0099821 0.0179203 0.048743 0.0521004 0.018775 0.024197 0.0352839 -0.0233055 0.048528 0.0549415 0.0479305 0.0102159 0.0544531 0.0061594 0.0311018 0.0622873 0.0179656 -0.0129937 0.00206393 -0.0223503 0.0529367 0.0147583 0.0356726 0.0045295 0.0183143 0.0312844 0.0482852 0.0418092 0.0110375 -0.00908236
internal_weight=0 1156.97 639.068 545.382 239.704 159.602 447.825 109.331 191.243 158.149 147.911 338.494 314.117 129.988 116.948 88.848 305.678 287.188 209.927 175.364 127.262 146.211 119.445 77.2607 113.749 53.0631 155.826 59.7189 96.1066 51.415 92.3455 30.3305 62.0151 40.4816 30.8369 20.9539 39.5777 37.4331 46.5508
internal_count=162646 138117 24529 55626 20337 12361 11921 1744 12608 11269 11468 10177 9181 8238 7405 5298 35289 8138 5814 4933 10244 3704 9562 2324 2800 1642 17100 6023 11077 2813 7068 2239 4829 3075 2255 1386 2212 2485 4712
is_linear=0
shrinkage=0.0467253


Tree=11
num_leaves=40
num_cat=0
split_feature=18 32 51 151 28 21 8 137 52 130 147 151 22 134 95 57 12 20 96 8 16 9 72 113 97 133 9 8 10 132 56 95 0 8 20 10 123 120 8
split_gain=738.396 156.486 148.186 104.878 92.558 56.0457 43.5198 30.5079 24.7918 22.9419 23.101 21.2567 20.79 18.1228 23.7006 16.493 35.8087 15.9545 15.1627 44.3369 30.8278 13.9957 13.4295 13.4037 12.9343 17.0958 11.7562 15.1396 11.5848 11.5525 10.3577 10.0368 9.93655 9.51572 9.32527 9.19654 13.6792 10.2137 11.4433
threshold=3103.7500000000005 1.0000000180025095e-35 1.0000000180025095e-35 651.0150000000001 2843.3950000000004 1.0000000180025095e-35 19109.355000000007 3143.5200000000009 13939.760000000002 41.055000000000007 466.50000000000006 2621.6550000000002 95728.645000000004 -714.99999999999989 1.0000000180025095e-35 4.5000000000000009 7.5000000000000009 594.77500000000009 1.0000000180025095e-35 13740.505000000003 -12817.209999999997 45.040000000000006 1317.6950000000002 -897.49999999999989 7.5000000000000009 106977.60000000002 45.040000000000006 10498.575000000003 233.97500000000005 8.0000000000000018 1817.1950000000004 1.0000000180025095e-35 550501404.50000012 5054.1150000000007 1.0000000180025095e-35 -444.98499999999996 11367.035000000002 91494.000000000015 19109.355000000007
decision_type=2 2 2 10 2 2 2 8 2 10 8 10 2 10 2 2 2 2 2 2 2 2 2 10 2 10 2 2 2 8 2 2 2 2 2 2 8 10 2
left_child=1 3 4 5 12 -1 11 28 13 10 -7 15 24 14 35 21 -17 18 20 -20 -12 -6 -4 -24 33 -26 -22 -28 -3 -9 -13 -23 -14 -2 -15 -5 37 -37 -39
right_child=2 7 22 8 6 9 -8 29 -10 -11 17 30 32 34 -16 16 -18 -19 19 -21 26 31 23 -25 25 -27 27 -29 -30 -31 -32 -33 -34 -35 -36 36 -38 38 -40
leaf_value=0.097569105645572057 0.054406131814183148 0.062294375980593578 -0.043344912462204489 -0.0077368997767107515 0.061449676196310719 0.028208580129969671 -0.036310615678770926 -0.040888660939340328 -0.041255872890579304 0.0096296060952064839 0.089760417886853947 -0.0086124765146665481 -0.042997963121627021 0.076783584611155004 0.070960538028293704 0.13034935548803728 -0.015421894546151184 0.027396969681426003 0.10686173974626244 0.035925249270202068 0.02077051868515354 -0.0090702830201476042 0.057795244743778222 -0.039942717756385179 0.025986306755265684 0.082404191511182667 0.069711210038950019 0.030356765665539909 -0.0012216822197295683 -0.0078044546346973942 -0.040097920657980526 0.051406672822318526 0.012890779697155569 0.0089881547026161961 0.019234758811303064 -0.02099016981581656 0.065605261559610481 0.042181671861669039 -0.012255784524351268
leaf_weight=63.839066946879029 13.708710110746322 13.053483434021475 552.93980050226673 55.220903583336622 8.1579553238116187 64.006211716216058 173.03825046308339 51.979191025253385 15.907825412694363 28.176589665003121 41.858050333335996 72.675309226848185 10.824478161521258 16.512648967094723 13.788348402362315 7.3666416513733548 7.3500443575903773 30.347750005312264 50.395320753101259 31.112968465778977 35.760674371384084 62.422316535376012 5.7834003828465939 6.5135431694798154 22.862021713517606 24.074317808263004 49.091779243666679 37.755195620469749 12.063058304134755 41.393087139818817 33.246724548749626 6.6273810015991321 19.380209437571466 37.958366520702839 9.7933360408060235 17.376767525915056 11.032362355384974 23.346912842709571 13.195652212947605
leaf_count=853 655 568 78079 4268 657 2019 21647 6078 1951 1241 475 7758 967 1015 898 709 759 880 1294 871 834 6082 562 821 1459 1480 908 818 813 2344 4019 589 1596 2256 737 982 499 1235 970
internal_value=0 0.0352015 -0.0258826 0.0447673 -0.00734479 0.05715 -0.0191959 -0.0139253 0.0143795 0.0501478 0.0535024 -0.00422725 0.0267789 0.0199017 0.012939 0.0122132 0.0575459 0.0593614 0.0633051 0.0797842 0.0551382 0.00357228 -0.0422709 0.00602462 0.0371685 0.0549238 0.0433182 0.0526026 0.0317887 -0.026222 -0.0184951 -0.00326571 -0.00713811 0.0210388 0.055359 0.00628171 0.0182001 0.00850061 0.0225241
internal_weight=0 727.007 1064.93 608.518 499.693 432.344 370.885 118.489 176.175 368.505 340.328 197.846 128.808 160.267 133.961 91.9243 14.7167 276.322 245.974 81.5083 164.466 77.2077 565.237 12.2969 98.6034 46.9363 122.608 86.847 25.1165 93.3723 105.922 69.0497 30.2047 51.6671 26.306 120.173 64.9517 53.9193 36.5426
internal_count=162646 32551 130095 22748 50633 10193 42220 9803 12555 9340 8099 20573 8413 10604 8852 8796 1468 6080 5200 2165 3035 7328 79462 1383 5850 2939 2560 1726 1381 8422 11777 6671 2563 2911 1752 7954 3686 3187 2205
is_linear=0
shrinkage=0.0467253


Tree=12
num_leaves=40
num_cat=0
split_feature=107 51 8 51 28 10 130 8 10 16 4 16 118 58 27 141 8 134 8 73 12 80 16 113 73 134 28 5 8 141 107 104 27 8 16 81 8 134 145
split_gain=797.226 148.854 62.8286 60.1439 49.7333 49.5446 32.436 27.7776 27.9671 24.6407 23.3465 44.9922 20.1413 19.8666 19.2594 15.2239 16.3249 14.2167 23.1012 12.8687 12.3013 12.0616 13.6295 11.9624 11.515 10.2702 10.0022 9.6161 9.5568 8.78965 8.55664 11.0302 8.45354 8.01911 7.8111 7.56549 6.85595 9.09021 6.35925
threshold=38.500000000000007 1.0000000180025095e-35 19109.355000000007 1.0000000180025095e-35 1.0000000180025095e-35 -824.7349999999999 310.84500000000008 19109.355000000007 -558.08999999999992 -316.28499999999991 1.0000000180025095e-35 -20168.489999999994 613.65500000000009 198.45000000000002 8.5000000000000018 182988.00000000003 10498.575000000003 -1475.4999999999998 13740.505000000003 7.5000000000000009 4.5000000000000009 1.0000000180025095e-35 -852.29499999999985 -1171.4999999999998 4.5000000000000009 -1719.9999999999998 14760.900000000003 44.500000000000007 2534.3550000000005 566297.72500000009 123.50000000000001 1.0000000180025095e-35 24.500000000000004 6337.0800000000008 -63.509999999999991 11730.005000000003 29238.060000000005 -1050.4999999999998 -5819.7099999999991
decision_type=2 2 2 2 2 2 10 2 2 2 2 2 8 2 2 8 2 10 2 2 2 2 2 10 2 8 2 2 2 8 2 2 2 2 2 2 2 10 10
left_child=3 2 5 4 10 19 12 8 33 -5 11 -1 -7 28 30 16 25 20 -19 29 -13 22 -15 -22 -17 -14 -26 -12 -10 32 31 36 -2 -6 -27 -33 37 -4 -9
right_child=1 -3 14 9 7 6 -8 38 13 -11 27 17 15 21 -16 24 -18 18 -20 -21 23 -23 -24 -25 26 34 -28 -29 -30 -31 -32 35 -34 -35 -36 -37 -38 -39 -40
leaf_value=0.10927465455753475 -0.016569022961384048 -0.042493162616937488 -0.014441921137347935 0.04888842228358347 0.013338406015423954 0.098813195896935865 -0.02230266425193449 -0.024087067237770498 0.051809943760814575 -0.029082011965684898 0.014357880075358232 0.066580379046920796 1.4558957672949079e-05 0.080902981165471302 -0.037940058770404531 0.075330880714065671 -0.019518129886923984 0.089616769761823048 0.039214360639934574 -0.023267801555955619 0.034424999168250002 0.089161434612550466 0.026173044797117954 0.069367076240763409 0.051892358451391597 0.07928467196877742 0.0029705057471738051 0.045088414322531301 0.01088871543562504 0.042706289131229945 -0.032701427127752536 0.065147446978381471 0.030216941292552601 -0.031743432903704412 0.023827556899308575 0.0032513267148077535 -0.025241628984080194 0.048317936188646639 0.0095708486170376552
leaf_weight=32.888065618462861 31.944785167463124 563.61511701019481 14.181354278232904 11.516912174876778 32.884784578345716 9.9018603893928212 26.216526096686721 23.88696985412389 18.631706214509904 38.200814611744136 42.407106207683682 47.069450007751584 13.731435335241256 16.184468450024724 132.64609690243378 19.734476001001894 21.755885307211429 47.037159164436162 34.353386502712965 95.831923397723585 144.80106185842305 23.443724565207958 25.723865638487041 25.098426476120949 21.586606059223413 11.040906685404478 15.804259710479526 46.727075762115419 37.615758608095348 10.903905923012642 29.038536897394806 7.4798074197024134 11.455158917233346 11.672030443325637 11.139556922949852 10.177925504744051 36.065771055407822 7.8155138194560996 25.169093689881265
leaf_count=393 2940 82491 1259 552 1958 777 2613 1769 698 3631 827 862 885 507 17234 1139 1770 929 1196 10959 3850 1050 1133 654 1399 683 1469 859 1445 1022 3353 733 1051 747 840 1073 3702 725 1469
internal_value=0 -0.0257086 -0.00813962 0.0384719 0.0423433 0.00603414 0.0249408 0.024076 0.0331973 -0.0110205 0.0516952 0.0574072 0.0348735 0.0448013 -0.026113 0.0293581 0.0124223 0.0516898 0.0683429 -0.0129702 0.0454428 0.0623227 0.0473091 0.0395868 0.0464547 0.0317723 0.0312142 0.0304678 0.0244437 0.00520242 -0.0111375 -0.00286783 -0.00422014 0.00152884 0.0514328 0.0294705 -0.0127024 0.00785673 -0.00681827
internal_weight=0 1102.07 538.452 685.312 635.594 301.047 150.912 215.212 166.156 49.7177 420.382 331.248 124.695 121.6 237.405 114.793 57.6678 298.359 81.3905 150.136 216.969 65.3521 41.9083 169.899 57.1253 35.9119 37.3909 89.1342 56.2475 54.3039 104.759 75.7204 43.3999 44.5568 22.1805 17.6577 58.0626 21.9969 49.0561
internal_count=162646 138117 55626 24529 20346 27547 11575 10776 7538 4183 9570 7884 8962 4833 28079 8185 4178 7491 2125 15972 5366 2690 1640 4504 4007 2408 2868 1686 2143 5013 10845 7492 3991 2705 1523 1806 5686 1984 3238
is_linear=0
shrinkage=0.0467253


Tree=13
num_leaves=40
num_cat=0
split_feature=107 51 95 2 11 16 12 112 11 32 140 151 16 133 151 107 12 25 109 130 6 97 64 51 113 9 151 97 85 11 113 147 81 72 113 10 58 147 72
split_gain=718.19 145.932 71.7019 64.8747 57.2515 41.8339 36.7617 36.0948 33.9091 38.6705 23.5116 21.2659 17.4408 17.0871 15.8583 14.597 14.0654 12.732 12.0967 11.5699 10.3092 9.96393 16.1959 9.69468 12.5026 8.88392 8.44076 14.6755 13.6133 8.96927 9.54805 8.43318 14.2291 8.33327 12.3111 8.17207 7.9693 9.34839 7.84345
threshold=38.500000000000007 1.0000000180025095e-35 1.0000000180025095e-35 1.0000000180025095e-35 419.78500000000003 -12817.209999999997 7.5000000000000009 278704.80000000005 76.785000000000011 1.5000000000000002 1.0000000180025095e-35 2093.8050000000007 -2003.3199999999999 316710.00000000006 838.69500000000005 123.50000000000001 6.5000000000000009 17853.595000000005 1.0000000180025095e-35 76.245000000000019 19.500000000000004 5.5000000000000009 2624.5200000000004 1.0000000180025095e-35 -1324.4999999999998 174.715 1225.7850000000003 98.500000000000014 32882.120000000003 1178.2150000000004 -897.49999999999989 3308.5000000000005 1879.4450000000002 1317.6950000000002 -1079.9999999999998 -1353.5949999999996 2145.4300000000003 1875.5000000000002 1317.6950000000002
decision_type=2 2 2 2 2 2 2 10 2 2 8 10 2 8 10 2 2 2 2 10 2 2 2 2 8 2 10 2 2 2 8 10 2 2 10 2 2 10 2
left_child=2 4 3 5 6 -1 7 11 9 14 -9 17 -10 -7 20 26 23 18 -2 36 -5 -20 -23 24 -14 -13 27 28 -6 30 35 32 -22 -3 -35 -28 37 -8 -16
right_child=1 33 -4 8 15 13 19 10 12 -11 -12 25 16 -15 38 -17 -18 -19 21 -21 31 22 -24 -25 -26 -27 29 -29 -30 -31 -32 -33 -34 34 -36 -37 -38 -39 -40
leaf_value=0.09708192374346919 0.0079646370376687224 -0.043148541276584844 0.10078566258329621 0.017452784185944058 -0.016653753043013725 0.02620301701706948 -0.018784255066599465 0.11865033137181986 0.039478906865398088 -0.016150884985941624 0.020233077593652816 0.037055742256270778 0.064153216862124385 0.061910172680501203 -0.0090119306644900216 -0.032901718563487711 -0.010674266664555693 -0.018284292114625417 0.024608367386132386 -0.037053581708840377 0.058423723360495852 0.096334982062232802 0.021380451367491438 -0.02352659133161376 0.012152617219171364 -0.019186763419474989 0.044135879411243098 0.068981669855687391 0.051507875091601388 -0.039103003292032278 -0.023755377663902937 0.029232916969085133 0.026912319104924011 0.049031410462106503 -0.047089514567789349 -0.012009408518084729 -0.019375466160841889 0.03493914624304699 0.029864636858400583
leaf_weight=43.519456029869616 23.489794062450528 528.74947881931439 34.858304717577994 31.397371714003384 41.271955323871225 60.633865302428603 11.370100993663074 12.937680388800802 31.006272084079683 31.885786156635731 8.9766839602962119 7.1923107714392236 14.197188230231403 56.545744489878416 20.287477916106582 138.24956523394212 89.912127985619009 11.174974372610448 20.656502681318671 32.29138320311904 131.90930095687509 16.547213580925021 10.157104407902805 9.889344878960399 34.93267728947103 41.580160061828792 10.74303967272863 6.4343520253896704 7.5705884625203899 35.04371794918552 37.925425868947059 50.42164820432663 41.013009910006076 5.3401754517108202 6.3903990653343481 11.962067100685088 30.114881159737706 18.704901546705514 25.661687664687634
leaf_count=389 1453 81089 1230 906 4307 1159 836 1030 1187 1629 747 586 800 768 929 18189 6710 796 1234 3650 2359 1059 689 1167 1869 3960 1137 694 768 4509 4329 1239 1164 536 866 1356 2839 1458 1024
internal_value=0 -0.0251649 0.0354422 0.0320588 -0.00785047 0.0579624 0.00875916 0.0228386 0.0239367 0.0327771 0.0783361 0.0135403 0.0075971 0.0434337 0.0379655 -0.0219326 0.000959571 0.0280684 0.0353794 -0.0144899 0.0425229 0.0489764 0.0678257 0.018683 0.0271794 -0.0108929 -0.0118865 0.00264965 -0.00608871 -0.020285 -0.00940841 0.0460472 0.05095 -0.0422844 -0.00333184 0.014556 -0.00238471 0.0146286 0.0126999
internal_weight=0 1074.87 708.071 673.213 534.394 160.699 245.194 152.712 512.514 332.576 21.9144 130.798 179.938 117.18 300.69 289.201 148.931 82.0256 70.8506 92.4813 254.741 47.3608 26.7043 59.0192 49.1299 48.7725 150.951 55.2769 48.8425 95.6743 60.6305 223.344 172.922 540.48 11.7306 22.7051 60.1899 30.075 45.9492
internal_count=162646 138117 24529 23299 55626 2316 20337 11554 20983 9250 1777 9777 11733 1927 7621 35289 10546 5231 4435 8783 5668 2982 1748 3836 2669 4546 17100 5769 5075 11331 6822 4762 3523 82491 1402 2493 5133 2294 1953
is_linear=0
shrinkage=0.0467253


Tree=14
num_leaves=40
num_cat=0
split_feature=107 51 33 94 28 18 33 52 56 20 130 95 147 10 7 51 134 10 9 81 126 5 5 83 28 113 6 147 5 136 83 130 64 147 139 7 113 136 24
split_gain=650.235 120.726 69.9831 67.9102 66.1217 46.1111 40.5261 35.1642 33.6527 25.7405 25.4181 37.7217 22.0459 19.6434 16.3024 14.7175 14.269 14.2341 13.3371 13.0589 13.0142 12.9826 16.0144 12.7859 12.6758 11.7872 11.0083 10.8462 9.42431 9.28197 9.05042 8.49818 9.34914 8.42261 12.0231 9.21154 7.68218 7.16311 7.95388
threshold=46.500000000000007 1.0000000180025095e-35 28623.910000000003 1.0000000180025095e-35 2843.3950000000004 29553.435000000001 11269.185000000003 13939.760000000002 559.37500000000011 4884.7050000000008 41.055000000000007 1.5000000000000002 466.50000000000006 -342.39999999999992 1.0000000180025095e-35 1.0000000180025095e-35 -532.49999999999989 1.0000000180025095e-35 1465.8750000000002 11730.005000000003 489.50000000000006 65.500000000000014 36.500000000000007 2347.1700000000005 1280.3700000000001 -501.49999999999994 39.500000000000007 3055.5000000000005 47.500000000000007 13372.375000000002 1.0000000180025095e-35 568.90500000000009 2123.1350000000007 2797.5000000000005 1419.9900000000002 663.11500000000012 -562.99999999999989 11769.690000000002 10.500000000000002
decision_type=2 2 2 2 2 2 2 2 2 2 10 2 8 2 2 2 10 2 2 2 10 2 2 2 2 10 2 8 2 10 2 10 2 10 10 2 8 10 2
left_child=2 5 3 4 7 6 8 9 10 12 11 13 -1 18 -14 16 29 -9 20 27 -2 22 -16 -22 -5 -12 -24 -15 -27 33 -21 32 -10 34 -6 -36 -28 38 -7
right_child=1 -3 -4 24 15 37 -8 17 31 -11 25 -13 14 19 21 -17 -18 -19 -20 30 23 -23 26 -25 -26 28 36 -29 -30 -31 -32 -33 -34 -35 35 -37 -38 -39 -40
leaf_value=0.020428677876446154 -0.020678782201895302 -0.042482919464364798 -0.018833777509197066 0.11811565551322888 0.0034768991486962158 -0.0012792083736244584 -0.035917170842092699 -0.035028023047726259 0.0096317839742497777 0.0064464001485024071 -0.014593661702996594 0.11972410866310247 0.0802904068720003 0.040238555660428249 0.061454539182775714 -0.0342385952424972 0.050635352584125305 0.036844273378616531 -0.022609483398669496 -0.0097182026547759318 0.013506181084434826 0.067456206439677605 0.059559856400969634 0.092774893232326197 0.065288340446083198 0.078819957301855287 0.019703679168787673 0.10288062663069565 0.00068216290823748234 -0.0096589264489029044 0.04370754526732229 -0.042488868804603355 -0.026652717045576532 -0.0013379989835649324 0.022395282719732026 0.080296293995777784 0.039155014750659876 -0.035889403523977709 -0.041370906307942719
leaf_weight=67.446110378485173 8.7508286517113465 504.12825645273551 58.649348820094019 21.2986601870507 21.792553535662591 32.587197153363377 54.033564820419997 18.906843633390967 32.764227809384465 41.01335414359346 48.675909677986056 10.054335046093909 33.967885334044695 12.735929960384967 74.210267237853259 18.036427361890674 17.085504112765193 8.8237230703234655 22.759847150649875 11.096018396783622 9.9791372208856064 54.207872897386551 37.537634878885001 8.0071966852992755 18.556505950633436 5.9305829480290395 70.93810694757849 11.46894403779879 7.805350084323436 54.3229925269261 18.405668837483972 20.095656559336931 29.429161700420082 37.167437587399036 11.967268471606078 12.028092726599423 118.17982211522758 116.99381883209571 16.162003547418863
leaf_count=1878 723 80538 4047 472 1102 3702 6386 2025 2898 1468 5060 675 558 725 1159 2161 1020 609 2296 772 815 1209 604 757 922 620 1731 672 836 3944 1217 2460 2994 2156 600 679 2012 16245 1899
internal_value=0 -0.0265333 0.030291 0.0341977 0.0308087 -0.00970249 0.00087803 0.0390502 0.00858537 0.0419045 0.0201361 0.03333 0.0450903 0.0249133 0.0493657 0.00570039 0.010367 -0.0121586 0.00367905 0.0444832 0.026057 0.0464073 0.0426149 0.0487952 0.0935193 -0.00380676 0.0364465 0.0699201 0.0344187 0.00535525 0.0236133 -0.016073 -0.0075376 0.0151872 0.0286013 0.0514192 0.0318588 -0.0296191 -0.014571
internal_weight=0 981.864 796.136 737.487 697.632 477.735 311.992 525.232 257.959 497.501 175.67 113.258 456.488 103.204 389.042 172.4 154.364 27.7306 49.497 53.7066 26.7372 355.074 300.866 17.9863 39.8552 62.4118 226.656 24.2049 13.7359 137.278 29.5017 82.289 62.1934 82.9554 45.7879 23.9954 189.118 165.743 48.7492
internal_count=162646 132290 30356 26309 24915 51752 29906 13253 23520 10619 15168 8652 9151 7977 7273 11662 9501 2634 4591 3386 2295 6715 5506 1572 1394 6516 4347 1397 1456 8481 1989 8352 5892 4537 2381 1279 3743 21846 5601
is_linear=0
shrinkage=0.0467253


Tree=15
num_leaves=40
num_cat=0
split_feature=107 51 33 22 8 28 10 72 147 4 118 147 29 0 28 22 7 18 12 56 8 0 5 7 96 7 81 96 16 18 144 113 51 113 22 113 8 113 5
split_gain=590.893 118.625 61.1431 64.3994 47.8456 45.653 33.2003 32.244 27.8617 23.1428 20.6422 20.4426 16.7756 15.9851 14.4067 13.5242 11.8217 10.986 14.4048 10.6708 10.5034 10.2343 14.631 9.94048 9.8604 10.6467 8.73854 8.52038 11.3333 8.43897 9.55541 8.25007 7.8844 7.71218 6.80065 6.69102 6.60871 6.54828 10.3337
threshold=46.500000000000007 1.0000000180025095e-35 28623.910000000003 47621.30000000001 19109.355000000007 2843.3950000000004 -824.7349999999999 1626.1200000000001 631.50000000000011 1.0000000180025095e-35 383.34500000000008 5358.5000000000009 1.0000000180025095e-35 550501404.50000012 2843.3950000000004 13157.210000000001 240.93500000000003 4538.9450000000006 6.5000000000000009 2492.4800000000005 10498.575000000003 1159263758.0000002 38.500000000000007 -450.22499999999997 1.0000000180025095e-35 826.34000000000015 15488.875000000002 1.0000000180025095e-35 -2447.7799999999993 29553.435000000001 1.0000000180025095e-35 -501.49999999999994 1.0000000180025095e-35 -1171.4999999999998 68981.045000000013 -1536.4999999999998 12067.160000000002 -470.99999999999994 44.500000000000007
decision_type=2 2 2 2 2 2 2 2 8 2 10 10 2 2 2 2 2 2 2 2 2 2 2 2 2 2 2 2 2 2 10 10 2 8 2 10 2 8 2
left_child=2 4 3 5 6 8 19 10 21 12 11 15 16 -14 34 24 -10 20 -19 29 23 35 -23 -7 -8 -26 -16 28 -15 30 31 -2 37 -25 -6 -1 -29 38 -5
right_child=1 -3 -4 32 14 17 7 -9 9 -11 -12 -13 13 27 26 -17 -18 18 -20 -21 -22 22 -24 33 25 -27 -28 36 -30 -31 -32 -33 -34 -35 -36 -37 -38 -39 -40
leaf_value=0.015461065044587618 -0.012468193273188951 -0.042275883305244705 -0.018291891995240398 0.041444125931434053 0.016029398217652521 0.0042047099582095205 0.0012329866587745503 0.097117763330605594 0.047783621038210655 0.027216602550881857 -0.025590569104811615 0.078580333244866657 0.021285502474899218 0.06417172634657603 -0.016204853234610031 -0.0069873485847545278 0.076650146835532063 0.030930553103090796 -0.027456109367998287 -0.034223455352911228 0.0011802216240036551 0.031469756018224881 -0.023590267987572085 0.023632394277416164 0.069961916960302378 0.015582375695856644 -0.039085300264772492 0.077126289488508235 0.028353593690065796 -0.029102250239326805 0.040928367486619856 0.03057208587129499 -0.038395822008593004 0.056840846349931917 -0.024825491811087851 0.046729489429025731 0.046599813068063316 -0.024032494202611762 -0.0082182594358657535
leaf_weight=26.069336913991719 51.059103750158101 483.41582767479122 57.590745081659406 14.096980157308279 22.777470681350678 22.484219332225621 16.186229636892676 10.982361564412711 47.636251506395638 89.614098840393126 23.703870699740946 12.595565130934117 46.560304786078632 31.979497104883194 52.902826874516904 35.831086049322039 88.550756390672177 14.325725300703196 25.911779342219234 36.226048440672457 38.154842994641513 20.706109845079482 21.454111535102129 29.982798501849174 17.846135256346319 14.048094732686875 117.12996306829154 39.926481296308339 48.591851713135839 23.361113342922181 12.183589168358592 12.010418136604128 16.067218941170722 31.110279600601643 14.595490343403069 35.001868832856417 25.291431249119341 19.073919403366745 26.054128263145685
leaf_count=933 5119 80538 4047 828 1577 1269 923 856 675 1164 2358 946 1203 408 6783 2995 1232 1248 2438 4592 2041 634 667 1333 1005 985 16764 893 1355 2989 1161 1211 2150 1265 1488 852 758 1069 1894
internal_value=0 -0.0259946 0.0281234 0.0316469 -0.00937015 0.0361657 0.00374531 0.0204797 0.0428971 0.0482639 0.0134781 0.023074 0.054005 0.0451207 -0.026193 0.0147423 0.0665531 0.0144974 -0.00666875 -0.0125365 0.0214937 0.0211582 0.00345131 0.0307672 0.0309359 0.04601 -0.0319664 0.0527329 0.0425701 -0.0045697 0.00304603 -0.00427197 -0.00936604 0.0405431 7.40889e-05 0.033382 0.0652882 -0.00149053 0.00921811
internal_weight=0 956.855 816.235 758.644 473.439 683.352 266.034 131.193 521.382 418.151 120.211 96.5071 328.537 192.35 207.406 83.9115 136.187 161.97 40.2375 134.84 121.732 103.231 42.1602 83.5773 48.0805 31.8942 170.033 145.789 80.5713 98.6142 75.2531 63.0695 75.2922 61.0931 37.373 61.0712 65.2179 59.225 40.1511
internal_count=162646 132290 30356 26309 51752 20368 25140 10068 10774 7688 9212 6854 6524 4617 26612 5908 1907 9594 3686 15072 5908 3086 1301 3867 2913 1990 23547 3414 1763 10480 7491 6330 5941 2598 3065 1785 1651 3791 2722
is_linear=0
shrinkage=0.0467253


Tree=16
num_leaves=40
num_cat=0
split_feature=18 33 21 151 136 94 72 8 31 83 104 11 141 8 134 22 22 72 55 95 104 11 31 8 134 18 22 141 22 134 103 20 6 6 8 74 22 111 11
split_gain=473.953 120.475 66.0494 54.7904 46.9424 41.9903 26.0939 51.1268 20.9937 18.105 17.508 14.6236 15.1039 14.4639 15.7817 16.4465 11.5348 10.8106 10.5441 11.9496 12.6605 10.3991 9.98046 9.7758 9.6494 15.6095 8.87337 8.82527 8.07954 8.4677 7.97261 7.8938 7.94871 9.35671 10.6451 13.6208 15.9527 7.74176 7.41529
threshold=6136.9950000000008 15012.240000000002 1.0000000180025095e-35 1225.7850000000003 7224.2400000000007 1.0000000180025095e-35 1317.6950000000002 13740.505000000003 3593.3650000000002 9501.9450000000015 3108.4500000000003 276.20500000000004 394457.90500000009 32787.345000000008 -988.99999999999989 -17750.084999999995 58069.720000000008 1626.1200000000001 1.0000000180025095e-35 1.0000000180025095e-35 5923.6500000000005 14.865 4840.9900000000007 13740.505000000003 -1050.4999999999998 233.30000000000004 -1588.0599999999997 566297.72500000009 23841.460000000003 -1050.4999999999998 1.5000000000000002 291.33500000000009 31.500000000000004 45.500000000000007 13740.505000000003 1027.1900000000003 1.0000000180025095e-35 8.0000000000000018 191.29500000000004
decision_type=2 2 2 10 10 2 2 2 2 2 2 2 10 2 10 2 2 2 2 2 2 2 2 2 8 2 2 8 2 8 2 2 2 2 2 2 2 8 2
left_child=1 2 26 5 6 8 27 -8 10 11 13 12 22 14 15 -4 18 -9 19 -6 -21 -3 24 -16 37 -26 -1 30 -19 -30 38 32 -17 -34 35 36 -35 -5 -2
right_child=4 21 3 9 16 -7 7 17 -10 -11 -12 -13 -14 -15 23 31 -18 28 -20 20 -22 -23 -24 -25 25 -27 -28 -29 29 -31 -32 -33 33 34 -36 -37 -38 -39 -40
leaf_value=0.079063403681105052 0.0073635546805451198 -0.0014279811392628422 0.056633096227596776 -0.0024614976462470051 -0.022791736287932587 0.083803090578325592 0.084334374651820768 -0.025759368768693502 -0.012754149524634264 -0.029941388022881689 -0.0064932176225793621 -0.01348145750434053 0.05776610816933548 0.0034559571345268926 0.065134183736624746 0.016557839048747681 -0.040394411578332297 0.054908512553577406 -0.03655446509009469 0.052535687774354918 -0.037989330437124637 -0.03256384449092721 -0.026750169105128362 0.031364281276899747 0.081756679393419254 0.0054414353398262727 0.050702806506678882 0.00023318779077149447 -0.040799497008876251 0.027685760174118175 -0.038618909495790249 0.0039842613241845952 0.057520133803309219 -0.0043169000123202935 0.0095764269119308527 0.056629774745776025 0.046490583974336579 0.041417616246632982 -0.023073830545288603
leaf_weight=46.981208280660212 22.113563403487206 33.235070677474141 44.305735411588103 45.369654417037964 119.18527018744498 31.032912105321884 16.980345170013607 32.378499178215861 26.413167543709278 32.487058921251446 26.979606807697564 46.951605495996773 17.281877398025244 35.029728819150478 52.598911479581147 79.500631064176559 302.91094765812159 7.7513478617183891 129.12262474978343 9.8377534844912571 5.1329247551038852 79.297086963895708 13.621702511794863 29.052563398610801 11.147836750838907 12.316568012814967 49.424186256714165 40.321266996208578 7.1918816803954542 8.7216969132423383 55.117920491844416 31.541101831942797 31.319709892850369 26.219372623600066 42.003353741485626 45.01560250390321 27.795602235477418 10.884781873319296 83.309711436741054
leaf_count=408 1943 2304 510 2956 16766 962 1015 2717 1564 3861 1760 4545 1177 839 1237 1965 49139 533 20051 1196 757 9057 1309 770 508 819 1094 4887 701 820 8377 1022 614 606 1025 731 811 505 10785
internal_value=0 0.0219514 0.0282069 0.0233365 -0.0264947 0.03107 -0.0106139 0.0133057 0.0277825 0.00181949 0.030054 0.00836764 0.0176411 0.0322729 0.0347388 0.0301593 -0.0341768 -0.00821493 -0.0270231 -0.0178494 0.0214978 -0.0233682 0.010212 0.0531185 0.0165278 0.0416985 0.0645238 -0.0193099 0.0157895 -0.00326503 -0.0242183 0.0260204 0.0287801 0.0344178 0.0292874 0.0376477 0.0218282 0.00602876 -0.0166893
internal_weight=0 927.807 815.274 718.869 840.076 528.808 273.886 73.0238 497.775 190.061 471.362 157.574 110.622 444.382 409.353 327.701 566.19 56.0434 263.279 134.156 14.9707 112.532 93.3405 81.6515 79.7188 23.4644 96.4054 200.862 23.6649 15.9136 160.541 283.395 251.854 172.354 141.034 99.0306 54.015 56.2544 105.423
internal_count=162646 42959 31598 30096 119687 14416 31778 5786 13454 15680 11890 11819 7274 10130 9291 7284 87909 4771 38770 18719 1953 11361 6097 2007 4788 1327 1502 25992 2054 1521 21105 6774 5752 3787 3173 2148 1417 3461 12728
is_linear=0
shrinkage=0.0467253


Tree=17
num_leaves=40
num_cat=0
split_feature=107 51 51 33 95 8 28 72 56 33 11 22 22 7 11 97 58 147 28 28 72 28 107 147 8 72 74 8 8 10 133 120 5 27 6 120 107 8 28
split_gain=497.179 97.3714 67.3651 44.6357 48.5138 43.9757 43.6358 40.5356 22.2371 22.749 21.0408 17.4911 17.1111 15.5301 18.1499 17.5458 13.9118 16.9914 13.0848 11.6756 11.2232 11.0051 10.6339 10.5356 15.069 14.7079 12.3737 10.3685 9.92002 8.59069 7.95031 6.9658 6.88153 6.32146 7.09363 9.16804 6.21758 8.90732 7.47176
threshold=53.500000000000007 1.0000000180025095e-35 1.0000000180025095e-35 28623.910000000003 1.0000000180025095e-35 19109.355000000007 1.0000000180025095e-35 1.0000000180025095e-35 559.37500000000011 4187.9000000000005 276.20500000000004 -17750.084999999995 68981.045000000013 1.0000000180025095e-35 76.785000000000011 67.500000000000014 198.45000000000002 4574.5000000000009 1280.3700000000001 2843.3950000000004 1.0000000180025095e-35 2843.3950000000004 67.500000000000014 360.50000000000006 13740.505000000003 1617.0250000000003 1027.1900000000003 7648.0350000000008 5054.1150000000007 233.97500000000005 139352.40000000002 211140.00000000003 61.500000000000007 1.0000000180025095e-35 66.500000000000014 617819.69500000018 137.50000000000003 -5509.2999999999993 28833.010000000006
decision_type=2 2 2 2 2 2 2 2 2 2 2 2 2 2 2 2 2 10 2 2 2 2 2 8 2 2 2 2 2 2 10 8 2 2 2 8 2 2 2
left_child=2 5 3 4 6 8 11 -4 9 12 16 -1 13 36 -15 28 27 19 -6 -18 -19 -7 -10 -13 26 29 30 -8 -16 -26 -25 -30 -5 34 35 -3 37 -2 -39
right_child=1 33 7 32 18 21 10 -9 22 -11 -12 23 -14 14 15 -17 17 20 -20 -21 -22 -23 -24 24 25 -27 -28 -29 31 -31 -32 -33 -34 -35 -36 -37 -38 38 -40
leaf_value=0.056403478386992778 0.04599676572263018 -0.022309980588510563 -0.031963554342454993 -0.021039767004895463 0.099933049419940967 -0.002923727043233485 0.019590806290975472 0.069541037904213135 0.025426215346209917 -0.034894264841376102 -0.010935522978164074 0.008222190059426154 -0.013928215690563558 0.088833554482767488 0.047758687340186547 0.080660282206005948 0.065287542374037472 0.03658215548474069 0.050099232930698359 0.028637082839258129 -0.018050503155854099 -0.032869101210664158 -0.024334913758066866 0.023085503589073547 0.020994581422330197 -0.0022695380163829503 0.053650779819653265 -0.012212715536017051 -0.021151429080206938 0.052413792142418508 0.049210511888907911 0.027725010228980423 0.023091199580185882 -0.04389008634462712 -0.040291363104361461 0.054158883269800943 -0.024835886233846804 0.022269525196536865 -0.032833418971781027
leaf_weight=75.182480715215206 13.520814744755624 13.23698978405446 66.606351661961526 45.93900685524568 24.276072083041072 32.550599692389369 51.24659883743152 9.8612223141826671 10.890714650508015 18.972511529922485 65.319836172275245 37.506651867181063 26.677097732201219 14.318109083920715 13.250584424007682 11.316681420896201 29.175923123024404 13.207738263532518 21.863508018665016 54.285875123925507 21.693628333043307 151.50537485722452 67.410324978642166 80.385211640968919 52.288041354622692 39.55653111031279 100.97242972627282 39.732311505824327 16.021400880999867 29.843459534458816 37.201130604371428 10.563622085377572 9.2713067573495191 392.19144303537905 27.751122906338423 4.6169703658670178 10.438846338540314 12.048860609065743 9.6958141499198955
leaf_count=641 1234 2192 7587 3255 393 2749 1924 577 907 2121 5674 1095 3014 627 1059 1045 672 558 979 2791 1115 22540 7954 1332 1440 966 1125 1628 1365 501 772 853 682 71057 4541 720 1142 920 899
internal_value=0 -0.0265639 0.0230898 0.0269608 0.0298571 -0.0104678 0.0269108 -0.0188736 0.00292222 0.0130758 0.0122165 0.0358214 0.0196779 0.0277419 0.0423331 0.0293171 0.0194405 0.0300009 0.076319 0.0414491 0.00262416 -0.0275732 -0.0174138 0.0317251 0.0343159 0.0211377 0.0416532 0.00570157 0.0147313 0.0324111 0.0313507 -0.00173026 -0.013629 -0.0419755 -0.0255103 -0.00253541 0.0068403 0.0162167 -0.00230053
internal_weight=0 856.978 905.415 828.948 773.737 419.181 727.598 76.4676 235.125 156.824 274.662 452.936 137.852 111.175 65.4704 51.1523 209.342 118.363 46.1396 83.4618 34.9014 184.056 78.301 377.753 340.247 121.688 218.559 90.9789 39.8356 82.1315 117.586 26.585 55.2103 437.797 45.6051 17.854 45.7043 35.2655 21.7447
internal_count=162646 126939 35707 27543 23606 48429 22234 8164 23140 14279 14362 7872 12158 9144 4949 4322 8688 5136 1372 3463 1673 25289 8861 7231 6136 2907 3229 3552 3277 1941 2104 2218 3937 78510 7453 2912 4195 3053 1819
is_linear=0
shrinkage=0.0467253


Tree=18
num_leaves=40
num_cat=0
split_feature=11 24 32 24 94 81 22 5 30 145 12 113 16 7 113 16 9 16 8 112 7 31 113 71 8 147 141 8 16 112 81 12 147 24 95 12 71 72 12
split_gain=377.051 74.7539 56.3953 50.5208 36.6961 31.4257 26.6799 21.0259 18.8374 18.356 17.1177 15.8563 13.1416 24.9535 12.2344 11.4074 10.3695 10.3157 23.6368 12.7914 16.3057 10.0591 14.7005 9.69824 9.56166 8.94004 8.51188 11.6581 8.15506 7.75878 7.56411 7.52945 6.73808 6.49496 7.85394 6.83537 6.37291 6.08316 5.63999
threshold=152.32500000000002 3.5000000000000004 1.5000000000000002 1.0000000180025095e-35 1.0000000180025095e-35 15488.875000000002 47621.30000000001 71.500000000000014 1.5000000000000002 -1.0000000180025095e-35 6.5000000000000009 -1416.4999999999998 -1066.5899999999997 1704.825 -623.99999999999989 -316.28499999999991 361.91000000000003 -20168.489999999994 21264.460000000003 228031.20000000004 373.92000000000002 1262.7850000000001 -1658.9999999999998 1.0000000180025095e-35 26210.775000000005 5358.5000000000009 566297.72500000009 7648.0350000000008 -316.28499999999991 164689.20000000004 1879.4450000000002 5.5000000000000009 3308.5000000000005 10.500000000000002 4.5000000000000009 7.5000000000000009 1.0000000180025095e-35 1317.6950000000002 7.5000000000000009
decision_type=2 2 2 2 2 2 2 2 2 8 2 8 2 2 10 2 2 2 2 10 2 2 10 2 2 8 10 2 2 10 2 2 8 2 2 2 2 2 2
left_child=1 2 4 6 5 8 7 10 11 33 21 29 -7 14 -14 -10 -6 -13 19 20 31 22 -2 -11 -25 -9 -12 -28 32 36 -24 -19 -22 34 -5 -36 -1 -3 -4
right_child=3 37 38 9 16 12 -8 25 15 23 26 17 13 -15 -16 -17 -18 18 -20 -21 28 -23 30 24 -26 -27 27 -29 -30 -31 -32 -33 -34 -35 35 -37 -38 -39 -40
leaf_value=0.012132549473086091 0.005295587177076469 -0.029048410084331427 -0.0084112134766679038 -0.0300469524013748 0.095603283959219507 -0.028557618375224469 -0.026820931295633926 0.020020664155116424 -0.033457033608023622 -0.018601693566934967 -0.01733035174822983 0.056165842707808909 -0.019381033491265538 0.07853846047466094 0.040279958734349169 0.025335090716621034 0.049775254889407428 0.033835065316092969 0.0068072376642189106 0.05888503429166541 0.050768475314563612 -0.015073698145174477 0.031880363965656883 0.047953921868486814 -0.014786400617179068 0.085423552900173047 0.050764480830804613 -0.013402774797875567 0.062185203028933621 0.0029934529276155128 0.087955146468813653 0.0092187156479522497 0.028517201675734676 -0.039381709925356986 0.053381165292370893 -0.022785522976041712 0.039383502994503765 0.0028238730163060062 -0.039690578601792779
leaf_weight=34.592605349607766 24.61027256119996 61.334994323551655 41.66744561586529 318.56567983562127 20.155049468856305 26.011221678927541 93.964649674016982 9.6177248074673134 15.647282840218395 57.239977337419987 100.57434225315228 50.968273910693824 29.475627546198663 9.9660072773694974 10.067256687209012 13.355141600128263 23.173246720340103 50.282867493573576 59.866952213458717 56.854405409656465 51.374310258775949 14.311039462219922 11.07484583323822 11.236734308302404 10.043301195371894 8.6820926857180876 10.465454217046501 15.101858502253888 40.13142566755414 48.860190375708044 9.9892256082966906 58.911545062903315 70.464423274621367 202.27655173093081 4.6444911048747581 5.765835736412555 40.874588917009532 16.615702822804451 18.031767414882779
leaf_count=1356 1318 8089 2591 50580 643 1812 12086 737 907 8150 9916 473 2136 600 709 764 755 761 1629 1406 812 1208 615 726 932 626 991 1681 1046 1499 820 1897 891 36026 593 867 905 1174 1919
internal_value=0 0.0213506 0.0257607 -0.021967 0.0294231 0.0267191 -0.00621282 0.00325968 0.030339 -0.0296763 -0.00143903 0.0322302 -0.00166662 0.0124615 -0.00419189 -0.00638422 0.0710931 0.0364032 0.0338064 0.0387341 0.0345091 0.0191093 0.0298198 -0.00858914 0.0183431 0.0510502 -0.0112106 0.0128628 0.0439169 0.0175001 0.0584727 0.0205543 0.0378996 -0.032793 -0.0287418 0.0111957 0.0268922 -0.0222546 -0.0178589
internal_weight=0 848.682 770.732 908.164 711.032 667.704 298.392 204.427 592.184 609.773 186.127 563.182 75.5201 49.5089 39.5429 29.0024 43.3283 438.854 387.886 328.019 271.165 59.9854 45.6743 78.52 21.28 18.2998 126.142 25.5673 161.97 124.327 21.0641 109.194 121.839 531.253 328.976 10.4103 75.4672 77.9507 59.6992
internal_count=162646 34774 25511 127872 21001 19603 29998 17912 14346 97874 16549 12675 5257 3445 2845 1671 1398 8915 8442 6813 5407 3961 2753 9808 1658 1363 12588 2672 2749 3760 1435 2658 1703 88066 52040 1460 2261 9263 4510
is_linear=0
shrinkage=0.0467253


Tree=19
num_leaves=40
num_cat=0
split_feature=51 28 73 95 71 28 2 22 22 151 97 16 31 56 126 22 5 16 141 7 95 5 96 11 5 151 11 18 22 16 116 57 126 120 141 81 97 16 139
split_gain=417.14 151.167 53.3051 43.2531 35.8814 27.4743 23.1721 18.1224 17.2337 16.3865 23.6008 15.7338 14.9758 13.9346 13.7767 11.29 10.3882 15.5387 17.5404 10.4091 10.2931 9.86182 19.9617 9.72977 9.0938 13.2379 8.76453 8.59347 14.1047 9.92387 8.54876 8.43102 15.663 8.3108 7.6161 7.26521 7.09247 6.88338 6.78503
threshold=1.0000000180025095e-35 2843.3950000000004 6.5000000000000009 1.5000000000000002 1.0000000180025095e-35 1280.3700000000001 1.0000000180025095e-35 95728.645000000004 235287.50000000003 2914.9050000000002 55.500000000000007 -9037.1499999999978 1.0000000180025095e-35 1817.1950000000004 405.50000000000006 3150.1350000000007 63.500000000000007 -1645.0699999999997 182988.00000000003 2157.8050000000007 1.0000000180025095e-35 38.500000000000007 1.0000000180025095e-35 834.32500000000016 34.500000000000007 3606.9750000000008 43.135000000000012 11909.260000000002 1.0000000180025095e-35 -316.28499999999991 771.65500000000009 1.5000000000000002 1728.5000000000002 91494.000000000015 351900.00000000006 5865.1600000000008 32.500000000000007 -238.97499999999999 9960.5750000000025
decision_type=2 2 2 2 2 2 2 2 2 10 2 2 2 2 10 2 2 2 10 2 2 2 2 2 2 10 2 2 2 2 8 2 10 10 8 2 2 2 10
left_child=1 3 7 6 -2 -6 11 9 12 10 14 -1 16 20 35 -12 19 -18 -19 21 23 22 -8 24 25 -4 -14 28 -11 -30 -22 -16 -33 -21 -13 -3 -31 -7 -34
right_child=4 2 13 -5 5 37 8 -9 -10 27 15 34 26 -15 31 -17 17 18 -20 33 30 -23 -24 -25 -26 -27 -28 -29 29 36 -32 32 38 -35 -36 -37 -38 -39 -40
leaf_value=0.05621142689359921 -0.040996467608183942 0.0072275784343549141 -0.010088572907450499 0.084434101070658865 0.082423714336191403 0.019178039410224629 0.019221722281340951 -0.023927998128505344 -0.021667620690711806 -0.013436736223254264 0.10646070831368822 0.016965401616239186 0.021938554197832669 -0.033850563581867971 0.014736979303319957 0.0363121166791225 0.068510770007572566 5.2143296263095347e-05 0.059363549698973561 -0.0036163707653414936 0.045274268362885201 0.018905812950309759 0.062782137195743673 -0.0324680777775039 -0.013755424585752912 0.075681514175335321 -0.019300296154099485 -0.029572020168524948 -0.0078042769931702177 0.069448150894825283 -0.0078559881094327697 0.089254809417353947 0.045284551255336238 0.026806444669428334 0.040668950041767585 -0.036065875231468487 0.014090006004041278 -0.04261839044127886 -0.004377351785820314
leaf_weight=71.368698082864285 457.29831913905218 27.785514699760824 10.014769898727538 27.832180316094309 8.8524849084205943 6.3143328470177975 54.031408398877829 30.114163332618773 21.079132635612041 36.853079732507467 9.9930827524513024 61.129783865995705 18.330048162024468 91.976897257380188 49.192585982382298 10.043461754918097 26.97224117256701 27.267428191844374 18.120082058943808 56.616057982668281 11.578534413594751 171.46889733243734 39.949345958419144 54.481376475654542 105.85543690528721 6.4648388153873375 29.137600914109498 18.607853058259934 10.617103101685645 12.781966440845283 15.413863827474417 11.576732854824511 13.524044112768026 29.987942959181964 57.36741857137531 12.169031403027473 8.3561792178079468 10.445022149011491 10.805125162936745
leaf_count=536 83839 1303 915 719 478 754 1228 3667 1456 2571 591 998 504 14074 2783 867 484 972 711 1768 991 4597 1047 8344 11162 769 1586 2236 885 924 1756 654 711 1177 662 864 673 1603 787
internal_value=0 0.0130438 -0.00515349 0.0273373 -0.0379823 0.0158365 0.02501 0.0101761 0.0196681 0.014597 0.0242186 0.0388795 0.0215146 -0.0187538 0.0166753 0.0712982 0.0242984 0.0404228 0.0237311 0.0209842 -0.0119408 0.0255734 0.0377384 -0.0160435 -0.00872892 0.0235585 -0.00337555 -0.00140906 0.00622925 0.0290523 0.0149345 0.027302 0.0445167 0.00691799 0.0284409 -0.00595839 0.0475644 -0.0193357 0.0232286
internal_weight=0 1268.86 558.206 710.658 482.91 25.6118 682.826 262.42 492.96 232.306 145.09 189.866 471.881 295.786 125.053 20.0365 424.413 72.3598 45.3875 352.054 203.809 265.45 93.9808 176.816 122.335 16.4796 47.4676 87.2162 68.6083 31.7552 26.9924 85.0985 35.9059 86.604 118.497 39.9545 21.1381 16.7594 24.3292
internal_count=162646 75972 57527 18445 86674 2835 17726 19516 15530 15849 8560 2196 14074 38011 7102 1458 11984 2167 1683 9817 23937 6872 2275 21190 12846 1684 2090 7289 5053 2482 2747 4935 2152 2945 1660 2167 1597 2357 1498
is_linear=0
shrinkage=0.0467253


Tree=20
num_leaves=40
num_cat=0
split_feature=51 137 33 56 50 94 72 147 18 21 33 130 27 8 7 20 147 72 134 126 126 145 27 57 10 126 27 8 8 57 147 126 27 20 147 10 109 10 8
split_gain=389.514 127.488 48.5292 44.7957 34.4047 35.8846 34.3101 34.6234 32.9147 24.8675 21.3616 17.4811 11.277 11.9496 10.3314 9.63947 9.56453 13.2075 18.0892 14.3339 9.93432 13.8849 8.8843 8.78757 19.4892 8.63232 7.11337 15.9804 10.4023 7.81642 9.28023 11.2118 7.87446 7.06452 6.69665 5.94662 5.94233 7.43958 10.7905
threshold=1.0000000180025095e-35 11853.130000000003 28623.910000000003 1175.4450000000002 1.0000000180025095e-35 1.0000000180025095e-35 1317.6950000000002 1516.5000000000002 7868.6050000000005 1.0000000180025095e-35 4187.9000000000005 41.055000000000007 2.5000000000000004 13740.505000000003 4487.5650000000014 4884.7050000000008 466.50000000000006 1.0000000180025095e-35 -1385.4999999999998 762.50000000000011 3611.5000000000005 -29740.619999999999 1.5000000000000002 4.5000000000000009 -1835.0049999999999 243.50000000000003 1.0000000180025095e-35 1.0000000180025095e-35 1233.1400000000001 1.5000000000000002 3792.5000000000005 1016.5000000000001 1.5000000000000002 37.400000000000006 5111.5000000000009 -169.98499999999999 1.0000000180025095e-35 233.97500000000005 12067.160000000002
decision_type=2 10 2 2 2 2 2 10 2 2 2 10 2 2 2 2 10 2 10 8 8 10 2 2 2 8 2 2 2 2 10 10 2 2 10 2 2 2 2
left_child=1 2 3 4 5 9 22 -8 10 -1 15 14 -10 23 25 16 -3 18 -18 -19 21 -20 -2 -14 -25 -11 28 -28 -27 30 31 -29 -33 35 -12 -13 37 38 -30
right_child=6 8 -4 -5 -6 -7 7 -9 12 11 34 33 13 -15 -16 -17 17 19 20 -21 -22 -23 -24 24 -26 26 27 29 36 -31 -32 32 -34 -35 -36 -37 -38 -39 -40
leaf_value=0.050616615736972445 -0.027536940891110747 -0.025386131861202251 -0.017968676464058472 -0.010537234484846027 -0.01841422816996429 0.072477247901264058 0.1084695033082161 -0.023971178994940799 0.041914813047699014 0.0071671976575300392 -0.041747038579964701 -0.014335417676940566 -0.021335865986044346 -0.034454375682211845 0.00075455113220010525 -0.017925273973158518 0.0045233895527234894 0.051635409456736961 0.10950072927560314 -0.0032029379425198554 0.019196953754847264 0.039732113020982965 -0.043644358959574553 -0.024778235590152204 0.055920838402331488 0.013889544279989971 0.065703907494625943 -0.0018963001385792614 0.037676562907882405 0.035176328415091149 -0.012825023843051321 0.060000385781441477 0.015383512616173815 -0.028815574545447493 0.016722286157276924 0.024609311204805955 0.052234333130855161 0.046685830059899437 0.0096514604380700687
leaf_weight=94.096743320580572 94.948445287998766 12.433913036249576 60.174290433060378 68.752997164614499 32.091106031555682 42.882863340433687 6.8078259895555702 11.743557594716547 5.7608986236155024 36.870312333572656 25.892954034265134 13.910836418624966 57.943663636688143 111.48813670407981 30.240948152728379 23.769358515739441 27.683183173649013 12.211911133956162 11.304947384167461 70.384211116470397 11.85985834430903 13.866507546510549 351.62810509977862 14.66851306660101 11.781565382145343 44.638536562211812 16.30693273153156 29.466329203452915 88.431247661821544 35.65130053460598 28.371007472276688 17.000794133171439 17.553146193735301 14.667775864247231 5.1227876711636773 22.254322622902691 53.188066126778722 73.350064453668892 45.391685722861439
leaf_count=1104 14211 806 4412 5266 1260 1051 414 1316 588 1327 3374 904 7214 18159 1040 2195 1794 787 819 5573 792 771 70733 2091 1306 775 590 1070 1147 1668 1148 481 844 1038 700 881 1330 655 1012
internal_value=0 0.0122863 0.0225072 0.0255324 0.0289001 0.0310561 -0.0376332 0.0246308 -0.00896462 0.0283704 0.00377505 0.0246805 -0.0225185 -0.0244135 0.0272537 0.00983659 0.0139674 0.0172891 0.0330952 0.00490496 0.0544544 0.0710664 -0.0402197 -0.011149 0.0111673 0.0289019 0.0306853 0.0221397 0.0347297 0.0165916 0.00942023 0.0192784 0.0373353 -0.0014639 -0.0320898 0.00962932 0.0383027 0.034726 0.0281707
internal_weight=0 1281.46 865.291 805.117 736.364 704.273 465.128 18.5514 416.172 661.39 214.53 567.293 201.643 195.882 516.46 183.514 159.745 147.311 64.7145 82.5961 37.0313 25.1715 446.577 84.3937 26.4501 486.219 449.349 144.35 305 128.043 92.3913 64.0203 34.5539 50.8329 31.0157 36.1652 260.361 207.173 133.823
internal_count=162646 75972 29003 24591 19325 18065 86674 1730 46969 17014 17611 15910 29358 28770 13087 13537 11342 10536 4176 6360 2382 1590 84944 10611 3397 12047 10720 5801 4919 5211 3543 2395 1325 2823 4074 1785 4144 2814 2159
is_linear=0
shrinkage=0.0467253


Tree=21
num_leaves=40
num_cat=0
split_feature=52 28 18 98 32 33 94 20 12 72 64 147 74 94 147 145 107 74 74 96 58 144 74 151 18 58 151 147 27 82 12 16 10 137 80 16 120 107 126
split_gain=366.498 125.075 45.6056 43.5588 38.5991 30.4294 27.598 17.4383 17.1989 15.3583 14.8292 14.8435 13.9331 13.2705 12.3821 10.0456 10.0173 9.11281 9.92785 9.71088 9.08559 13.7897 12.1039 8.88968 10.208 9.01032 11.5006 7.59718 7.15513 6.9684 6.6066 6.44635 11.0935 8.97982 7.23448 6.21786 6.2802 6.14263 8.37113
